{"learner":{"attributes":{"scikit_learn":"{\"_estimator_type\": \"regressor\"}"},"feature_names":["t_normalized","T_celsius_norm","I_amperes_norm","emb_0","emb_1","emb_2","emb_3","emb_4","emb_5","k","n","Ea"],"feature_types":["float","float","float","float","float","float","float","float","float","float","float","float"],"gradient_booster":{"model":{"cats":{"enc":[],"feature_segments":[],"sorted_idx":[]},"gbtree_model_param":{"num_parallel_tree":"1","num_trees":"1000"},"iteration_indptr":[0,1,2,3,4,5,6,7,8,9,10,11,12,13,14,15,16,17,18,19,20,21,22,23,24,25,26,27,28,29,30,31,32,33,34,35,36,37,38,39,40,41,42,43,44,45,46,47,48,49,50,51,52,53,54,55,56,57,58,59,60,61,62,63,64,65,66,67,68,69,70,71,72,73,74,75,76,77,78,79,80,81,82,83,84,85,86,87,88,89,90,91,92,93,94,95,96,97,98,99,100,101,102,103,104,105,106,107,108,109,110,111,112,113,114,115,116,117,118,119,120,121,122,123,124,125,126,127,128,129,130,131,132,133,134,135,136,137,138,139,140,141,142,143,144,145,146,147,148,149,150,151,152,153,154,155,156,157,158,159,160,161,162,163,164,165,166,167,168,169,170,171,172,173,174,175,176,177,178,179,180,181,182,183,184,185,186,187,188,189,190,191,192,193,194,195,196,197,198,199,200,201,202,203,204,205,206,207,208,209,210,211,212,213,214,215,216,217,218,219,220,221,222,223,224,225,226,227,228,229,230,231,232,233,234,235,236,237,238,239,240,241,242,243,244,245,246,247,248,249,250,251,252,253,254,255,256,257,258,259,260,261,262,263,264,265,266,267,268,269,270,271,272,273,274,275,276,277,278,279,280,281,282,283,284,285,286,287,288,289,290,291,292,293,294,295,296,297,298,299,300,301,302,303,304,305,306,307,308,309,310,311,312,313,314,315,316,317,318,319,320,321,322,323,324,325,326,327,328,329,330,331,332,333,334,335,336,337,338,339,340,341,342,343,344,345,346,347,348,349,350,351,352,353,354,355,356,357,358,359,360,361,362,363,364,365,366,367,368,369,370,371,372,373,374,375,376,377,378,379,380,381,382,383,384,385,386,387,388,389,390,391,392,393,394,395,396,397,398,399,400,401,402,403,404,405,406,407,408,409,410,411,412,413,414,415,416,417,418,419,420,421,422,423,424,425,426,427,428,429,430,431,432,433,434,435,436,437,438,439,440,441,442,443,444,445,446,447,448,449,450,451,452,453,454,455,456,457,458,459,460,461,462,463,464,465,466,467,468,469,470,471,472,473,474,475,476,477,478,479,480,481,482,483,484,485,486,487,488,489,490,491,492,493,494,495,496,497,498,499,500,501,502,503,504,505,506,507,508,509,510,511,512,513,514,515,516,517,518,519,520,521,522,523,524,525,526,527,528,529,530,531,532,533,534,535,536,537,538,539,540,541,542,543,544,545,546,547,548,549,550,551,552,553,554,555,556,557,558,559,560,561,562,563,564,565,566,567,568,569,570,571,572,573,574,575,576,577,578,579,580,581,582,583,584,585,586,587,588,589,590,591,592,593,594,595,596,597,598,599,600,601,602,603,604,605,606,607,608,609,610,611,612,613,614,615,616,617,618,619,620,621,622,623,624,625,626,627,628,629,630,631,632,633,634,635,636,637,638,639,640,641,642,643,644,645,646,647,648,649,650,651,652,653,654,655,656,657,658,659,660,661,662,663,664,665,666,667,668,669,670,671,672,673,674,675,676,677,678,679,680,681,682,683,684,685,686,687,688,689,690,691,692,693,694,695,696,697,698,699,700,701,702,703,704,705,706,707,708,709,710,711,712,713,714,715,716,717,718,719,720,721,722,723,724,725,726,727,728,729,730,731,732,733,734,735,736,737,738,739,740,741,742,743,744,745,746,747,748,749,750,751,752,753,754,755,756,757,758,759,760,761,762,763,764,765,766,767,768,769,770,771,772,773,774,775,776,777,778,779,780,781,782,783,784,785,786,787,788,789,790,791,792,793,794,795,796,797,798,799,800,801,802,803,804,805,806,807,808,809,810,811,812,813,814,815,816,817,818,819,820,821,822,823,824,825,826,827,828,829,830,831,832,833,834,835,836,837,838,839,840,841,842,843,844,845,846,847,848,849,850,851,852,853,854,855,856,857,858,859,860,861,862,863,864,865,866,867,868,869,870,871,872,873,874,875,876,877,878,879,880,881,882,883,884,885,886,887,888,889,890,891,892,893,894,895,896,897,898,899,900,901,902,903,904,905,906,907,908,909,910,911,912,913,914,915,916,917,918,919,920,921,922,923,924,925,926,927,928,929,930,931,932,933,934,935,936,937,938,939,940,941,942,943,944,945,946,947,948,949,950,951,952,953,954,955,956,957,958,959,960,961,962,963,964,965,966,967,968,969,970,971,972,973,974,975,976,977,978,979,980,981,982,983,984,985,986,987,988,989,990,991,992,993,994,995,996,997,998,999,1000],"tree_info":[0,0,0,0,0,0,0,0,0,0,0,0,0,0,0,0,0,0,0,0,0,0,0,0,0,0,0,0,0,0,0,0,0,0,0,0,0,0,0,0,0,0,0,0,0,0,0,0,0,0,0,0,0,0,0,0,0,0,0,0,0,0,0,0,0,0,0,0,0,0,0,0,0,0,0,0,0,0,0,0,0,0,0,0,0,0,0,0,0,0,0,0,0,0,0,0,0,0,0,0,0,0,0,0,0,0,0,0,0,0,0,0,0,0,0,0,0,0,0,0,0,0,0,0,0,0,0,0,0,0,0,0,0,0,0,0,0,0,0,0,0,0,0,0,0,0,0,0,0,0,0,0,0,0,0,0,0,0,0,0,0,0,0,0,0,0,0,0,0,0,0,0,0,0,0,0,0,0,0,0,0,0,0,0,0,0,0,0,0,0,0,0,0,0,0,0,0,0,0,0,0,0,0,0,0,0,0,0,0,0,0,0,0,0,0,0,0,0,0,0,0,0,0,0,0,0,0,0,0,0,0,0,0,0,0,0,0,0,0,0,0,0,0,0,0,0,0,0,0,0,0,0,0,0,0,0,0,0,0,0,0,0,0,0,0,0,0,0,0,0,0,0,0,0,0,0,0,0,0,0,0,0,0,0,0,0,0,0,0,0,0,0,0,0,0,0,0,0,0,0,0,0,0,0,0,0,0,0,0,0,0,0,0,0,0,0,0,0,0,0,0,0,0,0,0,0,0,0,0,0,0,0,0,0,0,0,0,0,0,0,0,0,0,0,0,0,0,0,0,0,0,0,0,0,0,0,0,0,0,0,0,0,0,0,0,0,0,0,0,0,0,0,0,0,0,0,0,0,0,0,0,0,0,0,0,0,0,0,0,0,0,0,0,0,0,0,0,0,0,0,0,0,0,0,0,0,0,0,0,0,0,0,0,0,0,0,0,0,0,0,0,0,0,0,0,0,0,0,0,0,0,0,0,0,0,0,0,0,0,0,0,0,0,0,0,0,0,0,0,0,0,0,0,0,0,0,0,0,0,0,0,0,0,0,0,0,0,0,0,0,0,0,0,0,0,0,0,0,0,0,0,0,0,0,0,0,0,0,0,0,0,0,0,0,0,0,0,0,0,0,0,0,0,0,0,0,0,0,0,0,0,0,0,0,0,0,0,0,0,0,0,0,0,0,0,0,0,0,0,0,0,0,0,0,0,0,0,0,0,0,0,0,0,0,0,0,0,0,0,0,0,0,0,0,0,0,0,0,0,0,0,0,0,0,0,0,0,0,0,0,0,0,0,0,0,0,0,0,0,0,0,0,0,0,0,0,0,0,0,0,0,0,0,0,0,0,0,0,0,0,0,0,0,0,0,0,0,0,0,0,0,0,0,0,0,0,0,0,0,0,0,0,0,0,0,0,0,0,0,0,0,0,0,0,0,0,0,0,0,0,0,0,0,0,0,0,0,0,0,0,0,0,0,0,0,0,0,0,0,0,0,0,0,0,0,0,0,0,0,0,0,0,0,0,0,0,0,0,0,0,0,0,0,0,0,0,0,0,0,0,0,0,0,0,0,0,0,0,0,0,0,0,0,0,0,0,0,0,0,0,0,0,0,0,0,0,0,0,0,0,0,0,0,0,0,0,0,0,0,0,0,0,0,0,0,0,0,0,0,0,0,0,0,0,0,0,0,0,0,0,0,0,0,0,0,0,0,0,0,0,0,0,0,0,0,0,0,0,0,0,0,0,0,0,0,0,0,0,0,0,0,0,0,0,0,0,0,0,0,0,0,0,0,0,0,0,0,0,0,0,0,0,0,0,0,0,0,0,0,0,0,0,0,0,0,0,0,0,0,0,0,0,0,0,0,0,0,0,0,0,0,0,0,0,0,0,0,0,0,0,0,0,0,0,0,0,0,0,0,0,0,0,0,0,0,0,0,0,0,0,0,0,0,0,0,0,0,0,0,0,0,0,0,0,0,0,0,0,0,0,0,0,0,0,0,0,0,0,0,0,0,0,0,0,0,0,0,0,0,0,0,0,0,0,0,0,0,0,0,0,0,0,0,0,0,0,0,0,0,0,0,0,0,0,0,0,0,0,0,0,0,0,0,0,0,0,0,0,0,0,0,0,0,0,0,0,0,0,0,0,0,0,0,0,0,0,0,0,0,0,0,0,0,0,0,0,0,0,0,0,0,0,0,0,0,0,0,0,0,0,0,0,0,0,0,0,0,0,0,0,0,0,0,0,0,0,0,0,0,0],"trees":[{"base_weights":[1.920464E-8,1.9279419E-1,-1.4393535E-1,2.7051622E-1,1.1402606E-1,-9.2803635E-2,-2.6944244E-1,1.791306E-2,2.4677283E-1,1.5332119E-1,3.5537362E-2,-2.8332073E-2,-1.3676937E-1,-1.1481057E-2,-1.7044215E-2,1.2702415E-2,7.693731E-3,1.7585701E-1,5.2909823E-3,5.8603756E-2,-2.6407761E-2,1.701321E-2,-8.090448E-2,-5.9522945E-2,-1.597233E-1,9.231047E-3,5.4479884E-3,3.3179298E-3,1.2929713E-3,-7.496357E-5,-2.0213502E-3,1.5648613E-3,-7.7729183E-4,-2.9199764E-3,-5.5505964E-3,-1.7410237E-3,-4.095203E-3,-7.107106E-3,-9.835801E-3],"categories":[],"categories_nodes":[],"categories_segments":[],"categories_sizes":[],"default_left":[0,0,0,0,0,0,0,0,0,0,0,0,0,0,0,0,0,0,0,0,0,0,0,0,0,0,0,0,0,0,0,0,0,0,0,0,0,0,0],"id":0,"left_children":[1,3,5,7,9,11,13,-1,15,17,19,21,23,-1,-1,-1,-1,25,-1,27,29,31,33,35,37,-1,-1,-1,-1,-1,-1,-1,-1,-1,-1,-1,-1,-1,-1],"loss_changes":[1.4152451E1,1.3037539E0,1.8488741E0,1.3867712E-1,3.3381593E-1,5.8854353E-1,1.6069746E-1,0E0,2.106142E-2,5.9536338E-2,5.5843916E-2,2.0639275E-1,2.1035838E-1,0E0,0E0,0E0,0E0,8.025289E-3,0E0,5.3939596E-3,3.7805685E-3,2.2345012E-2,2.061963E-2,1.3734125E-2,3.3823967E-2,0E0,0E0,0E0,0E0,0E0,0E0,0E0,0E0,0E0,0E0,0E0,0E0,0E0,0E0],"parents":[2147483647,0,0,1,1,2,2,3,3,4,4,5,5,6,6,8,8,9,9,10,10,11,11,12,12,17,17,19,19,20,20,21,21,22,22,23,23,24,24],"right_children":[2,4,6,8,10,12,14,-1,16,18,20,22,24,-1,-1,-1,-1,26,-1,28,30,32,34,36,38,-1,-1,-1,-1,-1,-1,-1,-1,-1,-1,-1,-1,-1,-1],"split_conditions":[4.019608E-1,1.7405063E-1,4.9877656E-1,2.333556E-2,2.6760533E-1,5.653595E-1,5.0801885E-1,1.791306E-2,1.188445E0,4.7224665E-1,3.7897804E-1,3.7502012E-1,2.6678708E-1,-1.1481057E-2,-1.7044215E-2,1.2702415E-2,7.693731E-3,2.1020636E-1,5.2909823E-3,3.3862484E-1,3.627451E-1,3.48313E-1,4.9061334E-1,1.1532218E0,1.213773E0,9.231047E-3,5.4479884E-3,3.3179298E-3,1.2929713E-3,-7.496357E-5,-2.0213502E-3,1.5648613E-3,-7.7729183E-4,-2.9199764E-3,-5.5505964E-3,-1.7410237E-3,-4.095203E-3,-7.107106E-3,-9.835801E-3],"split_indices":[0,0,9,2,2,0,9,0,10,9,2,2,2,0,0,0,0,2,0,2,0,2,9,10,10,0,0,0,0,0,0,0,0,0,0,0,0,0,0],"split_type":[0,0,0,0,0,0,0,0,0,0,0,0,0,0,0,0,0,0,0,0,0,0,0,0,0,0,0,0,0,0,0,0,0,0,0,0,0,0,0],"sum_hessian":[5.08E2,2.17E2,2.91E2,1.08E2,1.09E2,2.08E2,8.3E1,2E1,8.8E1,7.2E1,3.7E1,8.5E1,1.23E2,5.6E1,2.7E1,8E1,8E0,4.7E1,2.5E1,2.7E1,1E1,4.6E1,3.9E1,2.9E1,9.4E1,4E1,7E0,2.1E1,6E0,4E0,6E0,3.2E1,1.4E1,2.4E1,1.5E1,1.5E1,1.4E1,6.7E1,2.7E1],"tree_param":{"num_deleted":"0","num_feature":"12","num_nodes":"39","size_leaf_vector":"1"}},{"base_weights":[3.5589476E-6,1.8343332E-1,-1.3694058E-1,2.573418E-1,1.0852914E-1,-8.830918E-2,-2.5630993E-1,1.7060056E-2,2.3466331E-1,1.4592867E-1,3.3826657E-2,-2.7004793E-2,-1.3011457E-1,-1.0049021E-2,-1.51020875E-2,1.2075132E-2,7.351786E-3,1.6736993E-1,5.036608E-3,6.02873E-2,-1.5840683E-2,2.0332644E-2,-7.265264E-2,-5.15689E-2,-1.50427E-1,8.78075E-3,5.209639E-3,3.7092555E-3,2.3916606E-3,4.8521502E-4,-1.810623E-3,2.3161944E-3,3.7628214E-4,-2.5441598E-3,-5.2117254E-3,-1.2479717E-3,-3.2876662E-3,-6.689694E-3,-9.361573E-3],"categories":[],"categories_nodes":[],"categories_segments":[],"categories_sizes":[],"default_left":[0,0,0,0,0,0,0,0,0,0,0,0,0,0,0,0,0,0,0,0,0,0,0,0,0,0,0,0,0,0,0,0,0,0,0,0,0,0,0],"id":1,"left_children":[1,3,5,7,9,11,13,-1,15,17,19,21,23,-1,-1,-1,-1,25,-1,27,29,31,33,35,37,-1,-1,-1,-1,-1,-1,-1,-1,-1,-1,-1,-1,-1,-1],"loss_changes":[1.2811012E1,1.1789298E0,1.6724544E0,1.2722969E-1,3.0238593E-1,5.3212273E-1,1.518426E-1,0E0,1.7828941E-2,5.388248E-2,5.0895724E-2,1.873105E-1,1.9007874E-1,0E0,0E0,0E0,0E0,6.7054033E-3,0E0,7.785931E-4,7.6369704E-3,1.3964787E-2,2.4947092E-2,8.54972E-3,3.4942627E-2,0E0,0E0,0E0,0E0,0E0,0E0,0E0,0E0,0E0,0E0,0E0,0E0,0E0,0E0],"parents":[2147483647,0,0,1,1,2,2,3,3,4,4,5,5,6,6,8,8,9,9,10,10,11,11,12,12,17,17,19,19,20,20,21,21,22,22,23,23,24,24],"right_children":[2,4,6,8,10,12,14,-1,16,18,20,22,24,-1,-1,-1,-1,26,-1,28,30,32,34,36,38,-1,-1,-1,-1,-1,-1,-1,-1,-1,-1,-1,-1,-1,-1],"split_conditions":[4.019608E-1,1.7405063E-1,4.9877656E-1,2.333556E-2,2.6760533E-1,5.653595E-1,5.0536764E-1,1.7060056E-2,1.188445E0,4.7224665E-1,3.7249693E-1,3.6796486E-1,2.6310053E-1,-1.0049021E-2,-1.51020875E-2,1.2075132E-2,7.351786E-3,2.1020636E-1,5.036608E-3,4.49349E-1,3.5620916E-1,1.1476256E0,4.9058732E-1,6.36076E-1,1.213773E0,8.78075E-3,5.209639E-3,3.7092555E-3,2.3916606E-3,4.8521502E-4,-1.810623E-3,2.3161944E-3,3.7628214E-4,-2.5441598E-3,-5.2117254E-3,-1.2479717E-3,-3.2876662E-3,-6.689694E-3,-9.361573E-3],"split_indices":[0,0,9,2,2,0,9,0,10,9,2,2,2,0,0,0,0,2,0,9,0,10,9,0,10,0,0,0,0,0,0,0,0,0,0,0,0,0,0],"split_type":[0,0,0,0,0,0,0,0,0,0,0,0,0,0,0,0,0,0,0,0,0,0,0,0,0,0,0,0,0,0,0,0,0,0,0,0,0,0,0],"sum_hessian":[5.08E2,2.17E2,2.91E2,1.08E2,1.09E2,2.08E2,8.3E1,2E1,8.8E1,7.2E1,3.7E1,8.5E1,1.23E2,4E1,4.3E1,8E1,8E0,4.7E1,2.5E1,2.4E1,1.3E1,4.2E1,4.3E1,2.6E1,9.7E1,4E1,7E0,9E0,1.5E1,6E0,7E0,1.3E1,2.9E1,2.7E1,1.6E1,1E1,1.6E1,7E1,2.7E1],"tree_param":{"num_deleted":"0","num_feature":"12","num_nodes":"39","size_leaf_vector":"1"}},{"base_weights":[2.2012031E-5,1.7453821E-1,-1.3026755E-1,2.4480943E-1,1.0331909E-1,-8.701074E-2,-2.5206307E-1,1.4097891E-2,1.0087584E-2,1.388929E-1,3.2261007E-2,-2.571342E-2,-1.262877E-1,-1.0875518E-2,-1.5893217E-2,1.5736671E-1,4.59452E-3,5.331274E-2,-2.425804E-2,1.5523017E-2,-7.3523395E-2,-5.3902935E-2,-1.4614455E-1,8.665684E-3,6.069347E-3,3.0184751E-3,1.175912E-3,-6.841302E-5,-1.8571224E-3,1.4325357E-3,-7.1963907E-4,-2.65236E-3,-5.046112E-3,-1.569042E-3,-3.7166488E-3,-6.648498E-3,-9.002371E-3],"categories":[],"categories_nodes":[],"categories_segments":[],"categories_sizes":[],"default_left":[0,0,0,0,0,0,0,0,0,0,0,0,0,0,0,0,0,0,0,0,0,0,0,0,0,0,0,0,0,0,0,0,0,0,0,0,0],"id":2,"left_children":[1,3,5,7,9,11,13,-1,-1,15,17,19,21,-1,-1,23,-1,25,27,29,31,33,35,-1,-1,-1,-1,-1,-1,-1,-1,-1,-1,-1,-1,-1,-1],"loss_changes":[1.1596195E1,1.065721E0,1.5164652E0,1.1746311E-1,2.7357793E-1,5.191959E-1,1.03655815E-1,0E0,0E0,4.892671E-2,4.6506565E-2,1.7069145E-1,1.8185043E-1,0E0,0E0,8.22413E-3,0E0,4.4672936E-3,3.1933133E-3,1.8870465E-2,1.7087296E-2,1.147119E-2,2.2064686E-2,0E0,0E0,0E0,0E0,0E0,0E0,0E0,0E0,0E0,0E0,0E0,0E0,0E0,0E0],"parents":[2147483647,0,0,1,1,2,2,3,3,4,4,5,5,6,6,9,9,10,10,11,11,12,12,15,15,17,17,18,18,19,19,20,20,21,21,22,22],"right_children":[2,4,6,8,10,12,14,-1,-1,16,18,20,22,-1,-1,24,-1,26,28,30,32,34,36,-1,-1,-1,-1,-1,-1,-1,-1,-1,-1,-1,-1,-1,-1],"split_conditions":[4.019608E-1,1.7405063E-1,5.80418E-1,1.1324084E0,2.6760533E-1,5.653595E-1,7.4464345E-1,1.4097891E-2,1.0087584E-2,4.7285324E-1,3.7897804E-1,3.7502012E-1,2.6678708E-1,-1.0875518E-2,-1.5893217E-2,1.7586927E-1,4.59452E-3,3.3862484E-1,3.627451E-1,3.48313E-1,4.9061334E-1,1.1532218E0,1.2142632E0,8.665684E-3,6.069347E-3,3.0184751E-3,1.175912E-3,-6.841302E-5,-1.8571224E-3,1.4325357E-3,-7.1963907E-4,-2.65236E-3,-5.046112E-3,-1.569042E-3,-3.7166488E-3,-6.648498E-3,-9.002371E-3],"split_indices":[0,0,2,10,2,0,2,0,0,9,2,2,2,0,0,2,0,2,0,2,9,10,10,0,0,0,0,0,0,0,0,0,0,0,0,0,0],"split_type":[0,0,0,0,0,0,0,0,0,0,0,0,0,0,0,0,0,0,0,0,0,0,0,0,0,0,0,0,0,0,0,0,0,0,0,0,0],"sum_hessian":[5.08E2,2.17E2,2.91E2,1.08E2,1.09E2,2.16E2,7.5E1,5.5E1,5.3E1,7.2E1,3.7E1,8.5E1,1.31E2,5.2E1,2.3E1,5E1,2.2E1,2.7E1,1E1,4.6E1,3.9E1,2.9E1,1.02E2,3.2E1,1.8E1,2.1E1,6E0,4E0,6E0,3.2E1,1.4E1,2.4E1,1.5E1,1.5E1,1.4E1,7.7E1,2.5E1],"tree_param":{"num_deleted":"0","num_feature":"12","num_nodes":"37","size_leaf_vector":"1"}},{"base_weights":[3.4090579E-6,1.6602129E-1,-1.2394146E-1,2.3279081E-1,9.834948E-2,-8.2788855E-2,-2.3981217E-1,1.5576343E-2,2.1159703E-1,1.3433361E-1,3.4514397E-2,-2.215923E-2,-1.18736215E-1,-1.0250762E-2,-1.4942206E-2,1.0894029E-2,6.576703E-3,1.5257972E-1,4.6502203E-3,5.7828832E-2,-1.4579781E-2,1.9258184E-2,-6.404635E-2,-4.2001013E-2,-1.3564053E-1,7.958203E-3,4.6108644E-3,3.11162E-3,1.5655181E-3,4.4069035E-4,-1.661335E-3,2.3859984E-3,4.436314E-4,-1.976558E-3,-4.3905377E-3,-8.3111395E-4,-2.6178497E-3,-6.133772E-3,-8.484575E-3],"categories":[],"categories_nodes":[],"categories_segments":[],"categories_sizes":[],"default_left":[0,0,0,0,0,0,0,0,0,0,0,0,0,0,0,0,0,0,0,0,0,0,0,0,0,0,0,0,0,0,0,0,0,0,0,0,0,0,0],"id":3,"left_children":[1,3,5,7,9,11,13,-1,15,17,19,21,23,-1,-1,-1,-1,25,-1,27,29,31,33,35,37,-1,-1,-1,-1,-1,-1,-1,-1,-1,-1,-1,-1,-1,-1],"loss_changes":[1.0494303E1,9.621191E-1,1.3725142E0,1.15971565E-1,2.4803913E-1,4.7031474E-1,9.484625E-2,0E0,1.6115904E-2,3.8596272E-2,4.7771852E-2,1.4349166E-1,1.707164E-1,0E0,0E0,0E0,0E0,4.0022135E-3,0E0,1.321204E-3,6.3999104E-3,1.1991439E-2,2.0414874E-2,5.963072E-3,2.818656E-2,0E0,0E0,0E0,0E0,0E0,0E0,0E0,0E0,0E0,0E0,0E0,0E0,0E0,0E0],"parents":[2147483647,0,0,1,1,2,2,3,3,4,4,5,5,6,6,8,8,9,9,10,10,11,11,12,12,17,17,19,19,20,20,21,21,22,22,23,23,24,24],"right_children":[2,4,6,8,10,12,14,-1,16,18,20,22,24,-1,-1,-1,-1,26,-1,28,30,32,34,36,38,-1,-1,-1,-1,-1,-1,-1,-1,-1,-1,-1,-1,-1,-1],"split_conditions":[4.019608E-1,1.7405063E-1,5.80418E-1,2.333556E-2,2.6205584E-1,5.588235E-1,7.28365E-1,1.5576343E-2,1.188445E0,4.7224665E-1,3.7249693E-1,3.6796486E-1,2.5082096E-1,-1.0250762E-2,-1.4942206E-2,1.0894029E-2,6.576703E-3,2.1020636E-1,4.6502203E-3,3.3262745E-1,3.5620916E-1,1.1470013E0,4.889775E-1,6.22549E-1,1.213773E0,7.958203E-3,4.6108644E-3,3.11162E-3,1.5655181E-3,4.4069035E-4,-1.661335E-3,2.3859984E-3,4.436314E-4,-1.976558E-3,-4.3905377E-3,-8.3111395E-4,-2.6178497E-3,-6.133772E-3,-8.484575E-3],"split_indices":[0,0,2,2,2,0,2,0,10,9,2,2,2,0,0,0,0,2,0,2,0,10,9,0,10,0,0,0,0,0,0,0,0,0,0,0,0,0,0],"split_type":[0,0,0,0,0,0,0,0,0,0,0,0,0,0,0,0,0,0,0,0,0,0,0,0,0,0,0,0,0,0,0,0,0,0,0,0,0,0,0],"sum_hessian":[5.08E2,2.17E2,2.91E2,1.08E2,1.09E2,2.16E2,7.5E1,2E1,8.8E1,6.9E1,4E1,8.1E1,1.35E2,5E1,2.5E1,8E1,8E0,4.6E1,2.3E1,2.7E1,1.3E1,4.1E1,4E1,2.5E1,1.1E2,4E1,6E0,2.2E1,5E0,6E0,7E0,1E1,3.1E1,2.1E1,1.9E1,8E0,1.7E1,8.3E1,2.7E1],"tree_param":{"num_deleted":"0","num_feature":"12","num_nodes":"39","size_leaf_vector":"1"}},{"base_weights":[1.6851134E-5,1.5796666E-1,-1.1790463E-1,2.0152041E-1,6.4953655E-2,-7.59277E-2,-2.2094363E-1,1.4243267E-2,1.8142343E-1,9.913167E-2,2.0201333E-2,-2.1094386E-2,-1.104621E-1,-8.493544E-3,-1.2972067E-2,5.943933E-3,1.9252163E-1,5.6631803E-3,3.401377E-3,3.929109E-2,-2.5725245E-2,1.4746041E-2,-6.508263E-2,-3.824093E-2,-1.2676083E-1,1.0271779E-2,7.892624E-3,2.2146706E-3,6.212032E-4,-3.5722138E-4,-1.8460861E-3,1.3760369E-3,-6.7448575E-4,-4.1523334E-3,-1.9531688E-3,-7.941749E-4,-2.3913875E-3,-5.525512E-3,-7.84838E-3],"categories":[],"categories_nodes":[],"categories_segments":[],"categories_sizes":[],"default_left":[0,0,0,0,0,0,0,0,0,0,0,0,0,0,0,0,0,0,0,0,0,0,0,0,0,0,0,0,0,0,0,0,0,0,0,0,0,0,0],"id":4,"left_children":[1,3,5,7,9,11,13,-1,15,17,19,21,23,-1,-1,-1,25,-1,-1,27,29,31,33,35,37,-1,-1,-1,-1,-1,-1,-1,-1,-1,-1,-1,-1,-1,-1],"loss_changes":[9.499094E0,8.700428E-1,1.246201E0,1.962161E-1,1.0659513E-1,3.9343977E-1,1.2108755E-1,0E0,6.179762E-2,9.8774135E-3,2.9066047E-2,1.3023745E-1,1.45823E-1,0E0,0E0,0E0,1.323843E-2,0E0,0E0,2.540838E-3,1.8166113E-3,1.6963594E-2,1.4050111E-2,4.598744E-3,3.3704758E-2,0E0,0E0,0E0,0E0,0E0,0E0,0E0,0E0,0E0,0E0,0E0,0E0,0E0,0E0],"parents":[2147483647,0,0,1,1,2,2,3,3,4,4,5,5,6,6,8,8,9,9,10,10,11,11,12,12,16,16,19,19,20,20,21,21,22,22,23,23,24,24],"right_children":[2,4,6,8,10,12,14,-1,16,18,20,22,24,-1,-1,-1,26,-1,-1,28,30,32,34,36,38,-1,-1,-1,-1,-1,-1,-1,-1,-1,-1,-1,-1,-1,-1],"split_conditions":[4.019608E-1,2.5E-1,4.9877656E-1,1.1192361E0,2.7816784E-1,5.588235E-1,5.0496256E-1,1.4243267E-2,5.560251E4,4.7497377E-1,3.9307335E-1,3.7502012E-1,2.4866873E-1,-8.493544E-3,-1.2972067E-2,5.943933E-3,1.156913E0,5.6631803E-3,3.401377E-3,3.7249693E-1,3.6928105E-1,3.48313E-1,5.5064867E4,6.22549E-1,1.212376E0,1.0271779E-2,7.892624E-3,2.2146706E-3,6.212032E-4,-3.5722138E-4,-1.8460861E-3,1.3760369E-3,-6.7448575E-4,-4.1523334E-3,-1.9531688E-3,-7.941749E-4,-2.3913875E-3,-5.525512E-3,-7.84838E-3],"split_indices":[0,0,9,10,2,0,9,0,11,9,2,2,2,0,0,0,10,0,0,2,0,2,11,0,10,0,0,0,0,0,0,0,0,0,0,0,0,0,0],"split_type":[0,0,0,0,0,0,0,0,0,0,0,0,0,0,0,0,0,0,0,0,0,0,0,0,0,0,0,0,0,0,0,0,0,0,0,0,0,0,0],"sum_hessian":[5.08E2,2.17E2,2.91E2,1.47E2,7E1,2.08E2,8.3E1,2.6E1,1.21E2,3.9E1,3.1E1,8.1E1,1.27E2,3.8E1,4.5E1,2E1,1.01E2,2.5E1,1.4E1,2.2E1,9E0,4.5E1,3.6E1,2.4E1,1.03E2,7E1,3.1E1,1.8E1,4E0,4E0,5E0,3.1E1,1.4E1,2E1,1.6E1,8E0,1.6E1,7E1,3.3E1],"tree_param":{"num_deleted":"0","num_feature":"12","num_nodes":"39","size_leaf_vector":"1"}},{"base_weights":[2.508243E-5,1.5458658E-1,-1.09046824E-1,2.108634E-1,9.3530655E-2,-6.9223315E-2,-2.1015197E-1,1.4156361E-2,1.9144313E-1,1.2343885E-1,3.4439333E-2,-1.6893052E-2,-1.0506839E-1,-1.808458E-1,-1.3794108E-2,9.855858E-3,5.955277E-3,1.3805407E-1,4.3302285E-3,5.311512E-2,-7.338504E-3,2.6227893E-2,-5.2629083E-2,-4.7411356E-2,-1.2379354E-1,-7.2429823E-3,-9.871568E-3,7.428881E-3,4.9550957E-3,2.8972928E-3,1.4080078E-3,4.091578E-4,-1.2112012E-3,1.972349E-3,5.1877525E-4,-1.1570943E-3,-3.5266455E-3,-1.4001116E-3,-3.4417745E-3,-5.518542E-3,-7.7843266E-3],"categories":[],"categories_nodes":[],"categories_segments":[],"categories_sizes":[],"default_left":[0,0,0,0,0,0,0,0,0,0,0,0,0,0,0,0,0,0,0,0,0,0,0,0,0,0,0,0,0,0,0,0,0,0,0,0,0,0,0,0,0],"id":5,"left_children":[1,3,5,7,9,11,13,-1,15,17,19,21,23,25,-1,-1,-1,27,-1,29,31,33,35,37,39,-1,-1,-1,-1,-1,-1,-1,-1,-1,-1,-1,-1,-1,-1,-1,-1],"loss_changes":[8.597741E0,7.052808E-1,1.1893351E0,9.876633E-2,1.7778224E-1,4.033941E-1,1.1191726E-1,0E0,1.305151E-2,2.465105E-2,2.8478209E-2,1.3852681E-1,1.3232422E-1,7.80797E-3,0E0,0E0,0E0,4.5416355E-3,0E0,1.3820007E-3,3.3433242E-3,8.182434E-3,2.4236485E-2,1.1794634E-2,2.3913264E-2,0E0,0E0,0E0,0E0,0E0,0E0,0E0,0E0,0E0,0E0,0E0,0E0,0E0,0E0,0E0,0E0],"parents":[2147483647,0,0,1,1,2,2,3,3,4,4,5,5,6,6,8,8,9,9,10,10,11,11,12,12,13,13,17,17,19,19,20,20,21,21,22,22,23,23,24,24],"right_children":[2,4,6,8,10,12,14,-1,16,18,20,22,24,26,-1,-1,-1,28,-1,30,32,34,36,38,40,-1,-1,-1,-1,-1,-1,-1,-1,-1,-1,-1,-1,-1,-1,-1,-1],"split_conditions":[3.888889E-1,1.7405063E-1,4.9877656E-1,2.333556E-2,2.6205584E-1,5.588235E-1,7.4464345E-1,1.4156361E-2,1.188445E0,4.7224665E-1,3.7249693E-1,3.52129E-1,2.774936E-1,5.02168E-1,-1.3794108E-2,9.855858E-3,5.955277E-3,1.1597198E0,4.3302285E-3,3.3262745E-1,3.5620916E-1,4.81457E-1,3.9307335E-1,2.3187968E-1,1.2142632E0,-7.2429823E-3,-9.871568E-3,7.428881E-3,4.9550957E-3,2.8972928E-3,1.4080078E-3,4.091578E-4,-1.2112012E-3,1.972349E-3,5.1877525E-4,-1.1570943E-3,-3.5266455E-3,-1.4001116E-3,-3.4417745E-3,-5.518542E-3,-7.7843266E-3],"split_indices":[0,0,9,2,2,0,2,0,10,9,2,2,2,9,0,0,0,10,0,2,0,9,2,2,10,0,0,0,0,0,0,0,0,0,0,0,0,0,0,0,0],"split_type":[0,0,0,0,0,0,0,0,0,0,0,0,0,0,0,0,0,0,0,0,0,0,0,0,0,0,0,0,0,0,0,0,0,0,0,0,0,0,0,0,0],"sum_hessian":[5.08E2,2.1E2,2.98E2,1.08E2,1.02E2,2.15E2,8.3E1,2E1,8.8E1,6.7E1,3.5E1,8.8E1,1.27E2,6E1,2.3E1,8E1,8E0,4.6E1,2.1E1,2.4E1,1.1E1,4E1,4.8E1,3.2E1,9.5E1,2.2E1,3.8E1,3.4E1,1.2E1,1.9E1,5E0,6E0,5E0,2.1E1,1.9E1,1.9E1,2.9E1,1.8E1,1.4E1,7E1,2.5E1],"tree_param":{"num_deleted":"0","num_feature":"12","num_nodes":"41","size_leaf_vector":"1"}},{"base_weights":[2.1753001E-5,1.4302492E-1,-1.0674096E-1,2.0059517E-1,8.467782E-2,-7.12351E-2,-2.0671506E-1,2.3266913E-1,1.6361855E-1,1.13917775E-1,2.6277969E-2,-2.608573E-2,-1.0751345E-1,-9.021952E-3,-1.35633E-2,1.348225E-2,1.0231842E-2,8.388907E-3,4.4649425E-3,1.2918118E-1,3.7559948E-3,4.251258E-2,-2.3430204E-2,7.0056706E-3,-7.03744E-2,-5.198883E-2,-1.2384716E-1,7.143563E-3,4.930233E-3,2.4640067E-3,9.2938694E-4,-3.2688977E-4,-1.680109E-3,-2.3470624E-4,1.7405363E-3,-2.704301E-3,-4.804388E-3,-1.5782561E-3,-3.3305136E-3,-5.6784577E-3,-7.569384E-3],"categories":[],"categories_nodes":[],"categories_segments":[],"categories_sizes":[],"default_left":[0,0,0,0,0,0,0,0,0,0,0,0,0,0,0,0,0,0,0,0,0,0,0,0,0,0,0,0,0,0,0,0,0,0,0,0,0,0,0,0,0],"id":6,"left_children":[1,3,5,7,9,11,13,15,17,19,21,23,25,-1,-1,-1,-1,-1,-1,27,-1,29,31,33,35,37,39,-1,-1,-1,-1,-1,-1,-1,-1,-1,-1,-1,-1,-1,-1],"loss_changes":[7.7863765E0,7.1528864E-1,1.0217774E0,9.120369E-2,1.8484354E-1,3.5262942E-1,7.995963E-2,2.865553E-3,1.7112494E-3,3.3525586E-2,3.166181E-2,1.4411929E-1,1.023922E-1,0E0,0E0,0E0,0E0,0E0,0E0,7.2606206E-3,0E0,3.7794597E-3,1.4986075E-3,1.8706271E-2,1.2393802E-2,6.5575317E-3,8.848667E-3,0E0,0E0,0E0,0E0,0E0,0E0,0E0,0E0,0E0,0E0,0E0,0E0,0E0,0E0],"parents":[2147483647,0,0,1,1,2,2,3,3,4,4,5,5,6,6,7,7,8,8,9,9,10,10,11,11,12,12,19,19,21,21,22,22,23,23,24,24,25,25,26,26],"right_children":[2,4,6,8,10,12,14,16,18,20,22,24,26,-1,-1,-1,-1,-1,-1,28,-1,30,32,34,36,38,40,-1,-1,-1,-1,-1,-1,-1,-1,-1,-1,-1,-1,-1,-1],"split_conditions":[4.019608E-1,1.7405063E-1,5.0037795E-1,1.1324084E0,2.6760533E-1,5.964052E-1,7.876721E-1,2.333556E-2,1.190613E0,4.7285324E-1,3.9307335E-1,3.81035E-1,2.7816784E-1,-9.021952E-3,-1.35633E-2,1.348225E-2,1.0231842E-2,8.388907E-3,4.4649425E-3,1.7586927E-1,3.7559948E-3,3.3862484E-1,3.6928105E-1,5.9687445E4,4.9237442E-1,2.3187968E-1,1.214825E0,7.143563E-3,4.930233E-3,2.4640067E-3,9.2938694E-4,-3.2688977E-4,-1.680109E-3,-2.3470624E-4,1.7405363E-3,-2.704301E-3,-4.804388E-3,-1.5782561E-3,-3.3305136E-3,-5.6784577E-3,-7.569384E-3],"split_indices":[0,0,9,10,2,0,2,2,10,9,2,2,2,0,0,0,0,0,0,2,0,2,0,11,9,2,10,0,0,0,0,0,0,0,0,0,0,0,0,0,0],"split_type":[0,0,0,0,0,0,0,0,0,0,0,0,0,0,0,0,0,0,0,0,0,0,0,0,0,0,0,0,0,0,0,0,0,0,0,0,0,0,0,0,0],"sum_hessian":[5.08E2,2.17E2,2.91E2,1.08E2,1.09E2,2.16E2,7.5E1,5.5E1,5.3E1,7.2E1,3.7E1,9.7E1,1.19E2,5.6E1,1.9E1,2E1,3.5E1,4.9E1,4E0,5E1,2.2E1,2.8E1,9E0,5.6E1,4.1E1,2.8E1,9.1E1,3.2E1,1.8E1,2.1E1,7E0,4E0,5E0,4E1,1.6E1,2.7E1,1.4E1,1.3E1,1.5E1,7E1,2.1E1],"tree_param":{"num_deleted":"0","num_feature":"12","num_nodes":"41","size_leaf_vector":"1"}},{"base_weights":[3.4486147E-5,1.4231794E-1,-9.7169176E-2,1.909009E-1,8.739005E-2,-2.9047545E-2,-1.4682929E-1,2.2031724E-1,1.5441921E-1,1.1403092E-1,3.5417285E-2,8.305119E-3,-7.350503E-2,-1.1446937E-1,-2.172197E-1,1.284024E-2,9.7177625E-3,7.91788E-3,4.2863428E-3,1.3084324E-1,4.4324314E-3,5.091144E-2,-3.016461E-3,3.2338057E-2,-6.299202E-3,-5.7331853E-2,-5.1088072E-3,-6.523965E-2,-1.298134E-1,-1.3022152E-2,-9.418676E-3,6.8798973E-3,3.650542E-3,2.796453E-3,1.2850404E-3,3.697404E-4,-8.494472E-4,2.1994226E-3,4.0667714E-4,-7.4344774E-4,1.2590915E-3,-3.032198E-3,-1.4227967E-3,-1.9409609E-3,-3.798614E-3,-5.4113315E-3,-6.976129E-3],"categories":[],"categories_nodes":[],"categories_segments":[],"categories_sizes":[],"default_left":[0,0,0,0,0,0,0,0,0,0,0,0,0,0,0,0,0,0,0,0,0,0,0,0,0,0,0,0,0,0,0,0,0,0,0,0,0,0,0,0,0,0,0,0,0,0,0],"id":7,"left_children":[1,3,5,7,9,11,13,15,17,19,21,23,25,27,29,-1,-1,-1,-1,31,-1,33,35,37,39,41,-1,43,45,-1,-1,-1,-1,-1,-1,-1,-1,-1,-1,-1,-1,-1,-1,-1,-1,-1,-1],"loss_changes":[7.0535398E0,5.357094E-1,1.0207624E0,8.295274E-2,1.3303673E-1,2.1482861E-1,3.737545E-1,5.0313473E-3,4.9233437E-4,1.6138673E-2,2.099602E-2,2.512362E-2,2.1500528E-2,8.368778E-2,1.8268108E-2,0E0,0E0,0E0,0E0,4.4075847E-3,0E0,1.7250106E-3,1.7258142E-3,7.2560087E-3,1.2514737E-2,2.0999163E-3,0E0,5.8411956E-3,4.1822195E-3,0E0,0E0,0E0,0E0,0E0,0E0,0E0,0E0,0E0,0E0,0E0,0E0,0E0,0E0,0E0,0E0,0E0,0E0],"parents":[2147483647,0,0,1,1,2,2,3,3,4,4,5,5,6,6,7,7,8,8,9,9,10,10,11,11,12,12,13,13,14,14,19,19,21,21,22,22,23,23,24,24,25,25,27,27,28,28],"right_children":[2,4,6,8,10,12,14,16,18,20,22,24,26,28,30,-1,-1,-1,-1,32,-1,34,36,38,40,42,-1,44,46,-1,-1,-1,-1,-1,-1,-1,-1,-1,-1,-1,-1,-1,-1,-1,-1,-1,-1],"split_conditions":[3.8235295E-1,1.7405063E-1,6.36076E-1,1.1327908E0,2.5284022E-1,3.81035E-1,5.0317633E-1,2.333556E-2,1.190613E0,4.7010922E-1,3.7249693E-1,4.4444445E-1,4.9331746E-1,2.9398584E-1,5.415492E4,1.284024E-2,9.7177625E-3,7.91788E-3,4.2863428E-3,2.1020636E-1,4.4324314E-3,3.3262745E-1,3.5620916E-1,2.991193E-1,5.9687445E4,5.9177574E4,-5.1088072E-3,7.238562E-1,4.2835215E-1,-1.3022152E-2,-9.418676E-3,6.8798973E-3,3.650542E-3,2.796453E-3,1.2850404E-3,3.697404E-4,-8.494472E-4,2.1994226E-3,4.0667714E-4,-7.4344774E-4,1.2590915E-3,-3.032198E-3,-1.4227967E-3,-1.9409609E-3,-3.798614E-3,-5.4113315E-3,-6.976129E-3],"split_indices":[0,0,0,10,2,2,9,2,10,9,2,0,9,2,11,0,0,0,0,2,0,2,0,2,11,11,0,0,2,0,0,0,0,0,0,0,0,0,0,0,0,0,0,0,0,0,0],"split_type":[0,0,0,0,0,0,0,0,0,0,0,0,0,0,0,0,0,0,0,0,0,0,0,0,0,0,0,0,0,0,0,0,0,0,0,0,0,0,0,0,0,0,0,0,0,0,0],"sum_hessian":[5.08E2,2.06E2,3.02E2,1.08E2,9.8E1,1.28E2,1.74E2,5.7E1,5.1E1,6.4E1,3.4E1,7E1,5.8E1,1.21E2,5.3E1,2E1,3.7E1,4.7E1,4E0,3.6E1,2.8E1,2.4E1,1E1,2.6E1,4.4E1,3.9E1,1.9E1,3E1,9.1E1,1.8E1,3.5E1,3.1E1,5E0,1.9E1,5E0,6E0,4E0,1.7E1,9E0,3.5E1,9E0,3.4E1,5E0,1E1,2E1,3.2E1,5.9E1],"tree_param":{"num_deleted":"0","num_feature":"12","num_nodes":"47","size_leaf_vector":"1"}},{"base_weights":[4.517423E-5,1.3545965E-1,-9.2465855E-2,1.8167476E-1,8.320806E-2,-2.5866225E-2,-1.384574E-1,1.1892211E-2,1.6301699E-1,1.0855956E-1,3.3749342E-2,8.449554E-3,-6.8299055E-2,-1.08079895E-1,-2.0677423E-1,8.397642E-3,5.1337555E-3,1.2009333E-1,3.8301945E-3,4.852915E-2,-2.9092594E-3,3.0817702E-2,-5.4683904E-3,-5.3484194E-2,-4.8301765E-3,-5.9040297E-2,-1.22132555E-1,-9.097841E-3,-1.2717167E-2,6.5884083E-3,4.6213185E-3,3.1799928E-3,1.8847947E-3,4.4584475E-4,-7.1252685E-4,2.0590108E-3,2.7585492E-4,-7.9936365E-4,9.1070106E-4,-2.8268555E-3,-1.3635148E-3,-1.8157074E-3,-3.5143134E-3,-5.063971E-3,-6.5651233E-3],"categories":[],"categories_nodes":[],"categories_segments":[],"categories_sizes":[],"default_left":[0,0,0,0,0,0,0,0,0,0,0,0,0,0,0,0,0,0,0,0,0,0,0,0,0,0,0,0,0,0,0,0,0,0,0,0,0,0,0,0,0,0,0,0,0],"id":8,"left_children":[1,3,5,7,9,11,13,-1,15,17,19,21,23,25,27,-1,-1,29,-1,31,33,35,37,39,-1,41,43,-1,-1,-1,-1,-1,-1,-1,-1,-1,-1,-1,-1,-1,-1,-1,-1,-1,-1],"loss_changes":[6.388938E0,4.8474956E-1,9.245138E-1,7.5459E-2,1.2046754E-1,1.8259153E-1,3.4912968E-1,0E0,8.071661E-3,1.4757395E-2,1.910444E-2,2.1960828E-2,1.8315554E-2,7.962048E-2,1.7469645E-2,0E0,0E0,2.6795268E-3,0E0,1.6841665E-3,1.6024312E-3,6.851608E-3,1.1252144E-2,1.5793294E-3,0E0,5.1149502E-3,5.2502155E-3,0E0,0E0,0E0,0E0,0E0,0E0,0E0,0E0,0E0,0E0,0E0,0E0,0E0,0E0,0E0,0E0,0E0,0E0],"parents":[2147483647,0,0,1,1,2,2,3,3,4,4,5,5,6,6,8,8,9,9,10,10,11,11,12,12,13,13,14,14,17,17,19,19,20,20,21,21,22,22,23,23,25,25,26,26],"right_children":[2,4,6,8,10,12,14,-1,16,18,20,22,24,26,28,-1,-1,30,-1,32,34,36,38,40,-1,42,44,-1,-1,-1,-1,-1,-1,-1,-1,-1,-1,-1,-1,-1,-1,-1,-1,-1,-1],"split_conditions":[3.8235295E-1,1.7405063E-1,6.2974685E-1,3.6909476E-2,2.5284022E-1,3.81035E-1,5.0317633E-1,1.1892211E-2,1.188445E0,4.7224665E-1,3.7249693E-1,4.4444445E-1,4.9331746E-1,2.9337257E-1,8.065774E-1,8.397642E-3,5.1337555E-3,1.7386399E-1,3.8301945E-3,4.4809574E-1,4.0722442E-1,-3.9199598E-2,5.965012E4,5.9177574E4,-4.8301765E-3,7.238562E-1,4.261656E-1,-9.097841E-3,-1.2717167E-2,6.5884083E-3,4.6213185E-3,3.1799928E-3,1.8847947E-3,4.4584475E-4,-7.1252685E-4,2.0590108E-3,2.7585492E-4,-7.9936365E-4,9.1070106E-4,-2.8268555E-3,-1.3635148E-3,-1.8157074E-3,-3.5143134E-3,-5.063971E-3,-6.5651233E-3],"split_indices":[0,0,0,2,2,2,9,0,10,9,2,0,9,2,2,0,0,2,0,9,2,4,11,11,0,0,2,0,0,0,0,0,0,0,0,0,0,0,0,0,0,0,0,0,0],"split_type":[0,0,0,0,0,0,0,0,0,0,0,0,0,0,0,0,0,0,0,0,0,0,0,0,0,0,0,0,0,0,0,0,0,0,0,0,0,0,0,0,0,0,0,0,0],"sum_hessian":[5.08E2,2.06E2,3.02E2,1.08E2,9.8E1,1.24E2,1.78E2,2.4E1,8.4E1,6.4E1,3.4E1,6.9E1,5.5E1,1.25E2,5.3E1,7.6E1,8E0,4.5E1,1.9E1,2.4E1,1E1,2.6E1,4.3E1,3.8E1,1.7E1,2.9E1,9.6E1,3.8E1,1.5E1,2.9E1,1.6E1,8E0,1.6E1,5E0,5E0,1.8E1,8E0,3E1,1.3E1,3.3E1,5E0,1.1E1,1.8E1,3.3E1,6.3E1],"tree_param":{"num_deleted":"0","num_feature":"12","num_nodes":"45","size_leaf_vector":"1"}},{"base_weights":[4.272681E-5,1.18986346E-1,-9.5364496E-2,1.5422389E-1,3.939086E-2,-6.67146E-2,-1.8496765E-1,1.1167448E-2,1.3879946E-1,6.44941E-2,4.9191215E-3,-2.6081957E-2,-9.444577E-2,-8.041988E-3,-1.1741628E-2,1.13941476E-1,7.974214E-3,7.387398E-2,2.2610463E-3,2.0063926E-2,-2.889136E-2,2.6751256E-3,-6.1376262E-2,-4.690383E-2,-1.0852082E-1,6.2016947E-3,3.6688403E-3,4.1015805E-3,2.467525E-3,1.2075193E-3,2.570818E-4,-5.8712065E-4,-1.7281711E-3,-3.1480144E-4,1.3096763E-3,-2.3228864E-3,-4.1571655E-3,-1.3743764E-3,-2.9699816E-3,-6.25942E-3,-4.9066427E-3],"categories":[],"categories_nodes":[],"categories_segments":[],"categories_sizes":[],"default_left":[0,0,0,0,0,0,0,0,0,0,0,0,0,0,0,0,0,0,0,0,0,0,0,0,0,0,0,0,0,0,0,0,0,0,0,0,0,0,0,0,0],"id":9,"left_children":[1,3,5,7,9,11,13,-1,15,17,19,21,23,-1,-1,25,-1,27,-1,29,31,33,35,37,39,-1,-1,-1,-1,-1,-1,-1,-1,-1,-1,-1,-1,-1,-1,-1,-1],"loss_changes":[5.7875204E0,6.306026E-1,7.1415544E-1,1.3639522E-1,6.112276E-2,2.4092346E-1,4.4042587E-2,0E0,4.918623E-2,4.071325E-3,1.6453322E-2,9.049575E-2,8.056188E-2,0E0,0E0,1.6690612E-2,0E0,1.1530966E-3,0E0,1.2173727E-3,5.668402E-4,1.0714275E-2,9.126648E-3,5.8885366E-3,4.6827793E-3,0E0,0E0,0E0,0E0,0E0,0E0,0E0,0E0,0E0,0E0,0E0,0E0,0E0,0E0,0E0,0E0],"parents":[2147483647,0,0,1,1,2,2,3,3,4,4,5,5,6,6,8,8,9,9,10,10,11,11,12,12,15,15,17,17,19,19,20,20,21,21,22,22,23,23,24,24],"right_children":[2,4,6,8,10,12,14,-1,16,18,20,22,24,-1,-1,26,-1,28,-1,30,32,34,36,38,40,-1,-1,-1,-1,-1,-1,-1,-1,-1,-1,-1,-1,-1,-1,-1,-1],"split_conditions":[4.2088607E-1,2.8104576E-1,5.0132734E-1,1.1192361E0,2.9255235E-1,5.964052E-1,7.876721E-1,1.1167448E-2,5.9719945E4,4.7627535E-1,4.176308E-1,3.81035E-1,2.795808E-1,-8.041988E-3,-1.1741628E-2,2.162486E-1,7.974214E-3,2.4143712E-1,2.2610463E-3,4.806502E-1,3.75817E-1,5.9687445E4,4.9237442E-1,2.3187968E-1,5.479247E4,6.2016947E-3,3.6688403E-3,4.1015805E-3,2.467525E-3,1.2075193E-3,2.570818E-4,-5.8712065E-4,-1.7281711E-3,-3.1480144E-4,1.3096763E-3,-2.3228864E-3,-4.1571655E-3,-1.3743764E-3,-2.9699816E-3,-6.25942E-3,-4.9066427E-3],"split_indices":[0,0,9,10,2,0,2,0,11,9,2,2,2,0,0,2,0,2,0,9,0,11,9,2,11,0,0,0,0,0,0,0,0,0,0,0,0,0,0,0,0],"split_type":[0,0,0,0,0,0,0,0,0,0,0,0,0,0,0,0,0,0,0,0,0,0,0,0,0,0,0,0,0,0,0,0,0,0,0,0,0,0,0,0,0],"sum_hessian":[5.08E2,2.26E2,2.82E2,1.56E2,7E1,2.15E2,6.7E1,2.6E1,1.3E2,4E1,3E1,8.8E1,1.27E2,4.8E1,1.9E1,6.2E1,6.8E1,2.5E1,1.5E1,2.1E1,9E0,4.9E1,3.9E1,3E1,9.7E1,4.8E1,1.4E1,1.7E1,8E0,1.6E1,5E0,3E0,6E0,3.6E1,1.3E1,2.5E1,1.4E1,1.3E1,1.7E1,3.3E1,6.4E1],"tree_param":{"num_deleted":"0","num_feature":"12","num_nodes":"41","size_leaf_vector":"1"}},{"base_weights":[3.3147677E-5,1.1319997E-1,-9.074036E-2,1.4669746E-1,3.75337E-2,-6.3995056E-2,-1.7770603E-1,1.0629758E-2,1.3199566E-1,6.148475E-2,4.6457397E-3,-2.483946E-2,-9.0309314E-2,-1.1275312E-2,-7.7541457E-3,3.896222E-3,1.3991918E-1,7.043291E-2,4.31012E-2,2.0204868E-2,-2.548039E-2,2.5612998E-3,-5.8469426E-2,-4.4698786E-2,-1.0354549E-1,8.064718E-3,6.1975517E-3,3.9078924E-3,2.3578578E-3,2.2139016E-3,6.36217E-4,1.1756764E-3,4.007151E-4,-3.5082997E-4,-1.5763618E-3,6.6998805E-4,-7.913878E-4,-2.211208E-3,-3.963163E-3,-1.4563403E-3,-2.9683555E-3,-4.8074215E-3,-6.270052E-3],"categories":[],"categories_nodes":[],"categories_segments":[],"categories_sizes":[],"default_left":[0,0,0,0,0,0,0,0,0,0,0,0,0,0,0,0,0,0,0,0,0,0,0,0,0,0,0,0,0,0,0,0,0,0,0,0,0,0,0,0,0,0,0],"id":10,"left_children":[1,3,5,7,9,11,13,-1,15,17,19,21,23,-1,-1,-1,25,27,29,31,33,35,37,39,41,-1,-1,-1,-1,-1,-1,-1,-1,-1,-1,-1,-1,-1,-1,-1,-1,-1,-1],"loss_changes":[5.2389994E0,5.69855E-1,6.4686394E-1,1.2404227E-1,5.5641145E-2,2.2237319E-1,3.6399364E-2,0E0,4.5221806E-2,3.7087202E-3,1.5045654E-2,8.216208E-2,7.385385E-2,0E0,0E0,0E0,1.8576622E-2,9.891838E-4,8.568168E-6,6.585773E-4,1.006911E-3,1.01775415E-2,8.343205E-3,5.351685E-3,4.109502E-3,0E0,0E0,0E0,0E0,0E0,0E0,0E0,0E0,0E0,0E0,0E0,0E0,0E0,0E0,0E0,0E0,0E0,0E0],"parents":[2147483647,0,0,1,1,2,2,3,3,4,4,5,5,6,6,8,8,9,9,10,10,11,11,12,12,16,16,17,17,18,18,19,19,20,20,21,21,22,22,23,23,24,24],"right_children":[2,4,6,8,10,12,14,-1,16,18,20,22,24,-1,-1,-1,26,28,30,32,34,36,38,40,42,-1,-1,-1,-1,-1,-1,-1,-1,-1,-1,-1,-1,-1,-1,-1,-1,-1,-1],"split_conditions":[4.2088607E-1,2.8104576E-1,5.0163895E-1,1.1192361E0,2.9255235E-1,5.964052E-1,5.415492E4,1.0629758E-2,5.554598E4,4.7627535E-1,4.0722442E-1,3.81035E-1,2.795808E-1,-1.1275312E-2,-7.7541457E-3,3.896222E-3,1.1345977E0,2.4143712E-1,1.1674917E0,3.7249693E-1,3.6928105E-1,3.5092926E-1,4.9237442E-1,7.238562E-1,1.214825E0,8.064718E-3,6.1975517E-3,3.9078924E-3,2.3578578E-3,2.2139016E-3,6.36217E-4,1.1756764E-3,4.007151E-4,-3.5082997E-4,-1.5763618E-3,6.6998805E-4,-7.913878E-4,-2.211208E-3,-3.963163E-3,-1.4563403E-3,-2.9683555E-3,-4.8074215E-3,-6.270052E-3],"split_indices":[0,0,9,10,2,0,11,0,11,9,2,2,2,0,0,0,10,2,10,2,0,2,9,0,10,0,0,0,0,0,0,0,0,0,0,0,0,0,0,0,0,0,0],"split_type":[0,0,0,0,0,0,0,0,0,0,0,0,0,0,0,0,0,0,0,0,0,0,0,0,0,0,0,0,0,0,0,0,0,0,0,0,0,0,0,0,0,0,0],"sum_hessian":[5.08E2,2.26E2,2.82E2,1.56E2,7E1,2.17E2,6.5E1,2.6E1,1.3E2,4E1,3E1,8.8E1,1.29E2,1.8E1,4.7E1,1.8E1,1.12E2,2.5E1,1.5E1,2E1,1E1,4.9E1,3.9E1,3E1,9.9E1,4.4E1,6.8E1,1.7E1,8E0,1.4E1,1E0,1.5E1,5E0,3E0,7E0,3.1E1,1.8E1,2.5E1,1.4E1,1.6E1,1.4E1,7.8E1,2.1E1],"tree_param":{"num_deleted":"0","num_feature":"12","num_nodes":"43","size_leaf_vector":"1"}},{"base_weights":[2.5054092E-5,1.1483822E-1,-8.099703E-2,1.6020104E-1,7.252755E-2,-5.0726637E-2,-1.5537919E-1,1.8512642E-1,6.441124E-3,9.945137E-2,3.511814E-2,-8.223789E-3,-7.504281E-2,-5.974743E-3,-1.8691662E-1,1.1446769E-2,8.357937E-3,5.626237E-3,7.455592E-2,4.739398E-2,-5.658885E-3,1.8685775E-2,-4.0884815E-2,-2.5764005E-2,-8.64563E-2,-8.165731E-3,-1.1291351E-2,3.8982562E-3,1.8583148E-3,2.8456424E-3,1.7092236E-3,3.066591E-4,-9.2365744E-4,1.4256658E-3,1.4531812E-4,-1.2479774E-3,-3.075811E-3,-4.658389E-4,-1.673501E-3,-3.701038E-3,-5.603816E-3],"categories":[],"categories_nodes":[],"categories_segments":[],"categories_sizes":[],"default_left":[0,0,0,0,0,0,0,0,0,0,0,0,0,0,0,0,0,0,0,0,0,0,0,0,0,0,0,0,0,0,0,0,0,0,0,0,0,0,0,0,0],"id":11,"left_children":[1,3,5,7,9,11,13,15,-1,17,19,21,23,-1,25,-1,-1,-1,27,29,31,33,35,37,39,-1,-1,-1,-1,-1,-1,-1,-1,-1,-1,-1,-1,-1,-1,-1,-1],"loss_changes":[4.744224E0,3.933599E-1,6.653397E-1,5.514598E-2,1.0830706E-1,2.2055322E-1,7.499051E-2,4.237294E-3,0E0,1.2440503E-2,2.4295673E-2,7.0196584E-2,7.4264884E-2,0E0,3.5271645E-3,0E0,0E0,0E0,2.8905272E-4,2.7068332E-3,1.9265789E-3,6.7403354E-3,1.0292772E-2,3.1102188E-3,2.674985E-2,0E0,0E0,0E0,0E0,0E0,0E0,0E0,0E0,0E0,0E0,0E0,0E0,0E0,0E0,0E0,0E0],"parents":[2147483647,0,0,1,1,2,2,3,3,4,4,5,5,6,6,7,7,9,9,10,10,11,11,12,12,14,14,18,18,19,19,20,20,21,21,22,22,23,23,24,24],"right_children":[2,4,6,8,10,12,14,16,-1,18,20,22,24,-1,26,-1,-1,-1,28,30,32,34,36,38,40,-1,-1,-1,-1,-1,-1,-1,-1,-1,-1,-1,-1,-1,-1,-1,-1],"split_conditions":[3.888889E-1,1.613924E-1,4.9867E-1,1.1324084E0,2.2544816E-1,5.392157E-1,5.0536764E-1,2.217926E-2,6.441124E-3,4.7010922E-1,3.7249693E-1,3.6796486E-1,2.4866873E-1,-5.974743E-3,8.4533894E-1,1.1446769E-2,8.357937E-3,5.626237E-3,3.627451E-1,2.7816784E-1,3.5620916E-1,2.9524484E-1,4.8998424E-1,6.1601305E-1,1.212376E0,-8.165731E-3,-1.1291351E-2,3.8982562E-3,1.8583148E-3,2.8456424E-3,1.7092236E-3,3.066591E-4,-9.2365744E-4,1.4256658E-3,1.4531812E-4,-1.2479774E-3,-3.075811E-3,-4.658389E-4,-1.673501E-3,-3.701038E-3,-5.603816E-3],"split_indices":[0,0,9,10,2,0,9,2,0,9,2,2,2,0,2,0,0,0,0,2,0,2,9,0,10,0,0,0,0,0,0,0,0,0,0,0,0,0,0,0,0],"split_type":[0,0,0,0,0,0,0,0,0,0,0,0,0,0,0,0,0,0,0,0,0,0,0,0,0,0,0,0,0,0,0,0,0,0,0,0,0,0,0,0,0],"sum_hessian":[5.08E2,2.1E2,2.98E2,1E2,1.1E2,2.13E2,8.5E1,5.3E1,4.7E1,6.3E1,4.7E1,7.8E1,1.35E2,4.2E1,4.3E1,1.2E1,4.1E1,3.9E1,2.4E1,3.6E1,1.1E1,4.3E1,3.5E1,2.6E1,1.09E2,3E1,1.3E1,2.1E1,3E0,1.9E1,1.7E1,6E0,5E0,2.6E1,1.7E1,2.1E1,1.4E1,9E0,1.7E1,7.6E1,3.3E1],"tree_param":{"num_deleted":"0","num_feature":"12","num_nodes":"41","size_leaf_vector":"1"}},{"base_weights":[2.7628685E-5,1.02534205E-1,-8.219506E-2,1.3283646E-1,3.4083672E-2,-5.7429045E-2,-1.5965483E-1,9.799811E-3,1.1996555E-1,5.589499E-2,4.136974E-3,-2.2463707E-2,-8.129222E-2,-1.0089867E-2,-6.894566E-3,1.3633291E-1,9.575061E-2,6.399897E-2,3.9232597E-2,1.8348211E-2,-2.3369659E-2,2.2921348E-3,-5.2846916E-2,-3.853722E-2,-9.2878245E-2,7.6120743E-3,5.93256E-3,5.5806204E-3,3.549151E-3,3.7222777E-3,2.3912897E-3,2.0153944E-3,5.7758094E-4,1.0461471E-3,2.9622435E-4,-4.3616295E-4,-1.5246426E-3,1.3334904E-3,-2.2345141E-4,-1.9754318E-3,-3.622174E-3,-1.1738782E-3,-2.465292E-3,-4.290097E-3,-5.7033454E-3],"categories":[],"categories_nodes":[],"categories_segments":[],"categories_sizes":[],"default_left":[0,0,0,0,0,0,0,0,0,0,0,0,0,0,0,0,0,0,0,0,0,0,0,0,0,0,0,0,0,0,0,0,0,0,0,0,0,0,0,0,0,0,0,0,0],"id":12,"left_children":[1,3,5,7,9,11,13,-1,15,17,19,21,23,-1,-1,25,27,29,31,33,35,37,39,41,43,-1,-1,-1,-1,-1,-1,-1,-1,-1,-1,-1,-1,-1,-1,-1,-1,-1,-1,-1,-1],"loss_changes":[4.298466E0,4.6631694E-1,5.337298E-1,1.041162E-1,4.6144344E-2,1.7840087E-1,3.454125E-2,0E0,3.9658546E-2,3.0254424E-3,1.2546794E-2,6.7063555E-2,5.982685E-2,0E0,0E0,3.5957098E-3,1.4470339E-2,8.324012E-4,1.061894E-5,5.4778485E-4,8.81623E-4,8.360258E-3,7.5932294E-3,3.5453998E-3,5.2065253E-3,0E0,0E0,0E0,0E0,0E0,0E0,0E0,0E0,0E0,0E0,0E0,0E0,0E0,0E0,0E0,0E0,0E0,0E0,0E0,0E0],"parents":[2147483647,0,0,1,1,2,2,3,3,4,4,5,5,6,6,8,8,9,9,10,10,11,11,12,12,15,15,16,16,17,17,18,18,19,19,20,20,21,21,22,22,23,23,24,24],"right_children":[2,4,6,8,10,12,14,-1,16,18,20,22,24,-1,-1,26,28,30,32,34,36,38,40,42,44,-1,-1,-1,-1,-1,-1,-1,-1,-1,-1,-1,-1,-1,-1,-1,-1,-1,-1,-1,-1],"split_conditions":[4.2088607E-1,2.8104576E-1,5.0132734E-1,3.6909476E-2,2.9255235E-1,5.964052E-1,5.4205777E4,9.799811E-3,1.613924E-1,4.7627535E-1,4.0722442E-1,3.81035E-1,2.7816784E-1,-1.0089867E-2,-6.894566E-3,1.1543589E0,1.7386399E-1,2.045071E-1,1.1674917E0,4.806502E-1,3.75817E-1,1.9645956E-1,4.9237442E-1,2.3187968E-1,1.214825E0,7.6120743E-3,5.93256E-3,5.5806204E-3,3.549151E-3,3.7222777E-3,2.3912897E-3,2.0153944E-3,5.7758094E-4,1.0461471E-3,2.9622435E-4,-4.3616295E-4,-1.5246426E-3,1.3334904E-3,-2.2345141E-4,-1.9754318E-3,-3.622174E-3,-1.1738782E-3,-2.465292E-3,-4.290097E-3,-5.7033454E-3],"split_indices":[0,0,9,2,2,0,11,0,0,9,2,2,2,0,0,10,2,2,10,9,0,2,9,2,10,0,0,0,0,0,0,0,0,0,0,0,0,0,0,0,0,0,0,0,0],"split_type":[0,0,0,0,0,0,0,0,0,0,0,0,0,0,0,0,0,0,0,0,0,0,0,0,0,0,0,0,0,0,0,0,0,0,0,0,0,0,0,0,0,0,0,0,0],"sum_hessian":[5.08E2,2.26E2,2.82E2,1.56E2,7E1,2.15E2,6.7E1,2.4E1,1.32E2,4E1,3E1,8.8E1,1.27E2,2E1,4.7E1,7.6E1,5.6E1,2.5E1,1.5E1,2E1,1E1,4.9E1,3.9E1,2.8E1,9.9E1,3.6E1,4E1,3.2E1,2.4E1,1.3E1,1.2E1,1.4E1,1E0,1.6E1,4E0,4E0,6E0,1E1,3.9E1,2.5E1,1.4E1,1.3E1,1.5E1,7.8E1,2.1E1],"tree_param":{"num_deleted":"0","num_feature":"12","num_nodes":"45","size_leaf_vector":"1"}},{"base_weights":[3.696003E-5,9.720208E-2,-7.85222E-2,1.2916534E-1,3.760003E-2,-5.5379342E-2,-1.5342337E-1,9.671637E-3,1.1761237E-1,6.1815713E-2,9.936583E-3,-2.3550406E-2,-7.906112E-2,-6.8323775E-3,-1.029865E-2,1.3072738E-1,9.303054E-2,3.7903567E-3,2.317665E-3,2.2668133E-2,-2.0598412E-2,1.3727815E-3,-5.190341E-2,-3.9476577E-2,-9.072928E-2,7.2701476E-3,5.6431666E-3,5.5631665E-3,3.590292E-3,1.7098613E-3,8.5983303E-4,-2.5172235E-4,-1.3875545E-3,-3.154805E-4,1.1063465E-3,-2.0662898E-3,-3.6974028E-3,-1.3101333E-3,-2.5501824E-3,-5.2448283E-3,-4.093409E-3],"categories":[],"categories_nodes":[],"categories_segments":[],"categories_sizes":[],"default_left":[0,0,0,0,0,0,0,0,0,0,0,0,0,0,0,0,0,0,0,0,0,0,0,0,0,0,0,0,0,0,0,0,0,0,0,0,0,0,0,0,0],"id":13,"left_children":[1,3,5,7,9,11,13,-1,15,17,19,21,23,-1,-1,25,27,-1,-1,29,31,33,35,37,39,-1,-1,-1,-1,-1,-1,-1,-1,-1,-1,-1,-1,-1,-1,-1,-1],"loss_changes":[3.892936E0,4.2950106E-1,4.803301E-1,8.7136745E-2,5.3646788E-2,1.6170526E-1,3.0037522E-2,0E0,2.9104352E-2,5.7887584E-3,1.562848E-2,6.64961E-2,5.3691268E-2,0E0,0E0,4.8246384E-3,1.0585934E-2,0E0,0E0,1.178192E-3,1.1961772E-3,8.271128E-3,7.2039515E-3,3.253851E-3,3.3383965E-3,0E0,0E0,0E0,0E0,0E0,0E0,0E0,0E0,0E0,0E0,0E0,0E0,0E0,0E0,0E0,0E0],"parents":[2147483647,0,0,1,1,2,2,3,3,4,4,5,5,6,6,8,8,9,9,10,10,11,11,12,12,15,15,16,16,19,19,20,20,21,21,22,22,23,23,24,24],"right_children":[2,4,6,8,10,12,14,-1,16,18,20,22,24,-1,-1,26,28,-1,-1,30,32,34,36,38,40,-1,-1,-1,-1,-1,-1,-1,-1,-1,-1,-1,-1,-1,-1,-1,-1],"split_conditions":[4.2156863E-1,2.5E-1,5.0163895E-1,2.333556E-2,2.7816784E-1,6.094771E-1,8.4533894E-1,9.671637E-3,1.613924E-1,4.742377E-1,3.9307335E-1,3.869078E-1,2.795808E-1,-6.8323775E-3,-1.029865E-2,1.1543589E0,1.7165281E-1,3.7903567E-3,2.317665E-3,4.4999263E-1,3.6928105E-1,5.9687445E4,4.940901E-1,7.238562E-1,5.479247E4,7.2701476E-3,5.6431666E-3,5.5631665E-3,3.590292E-3,1.7098613E-3,8.5983303E-4,-2.5172235E-4,-1.3875545E-3,-3.154805E-4,1.1063465E-3,-2.0662898E-3,-3.6974028E-3,-1.3101333E-3,-2.5501824E-3,-5.2448283E-3,-4.093409E-3],"split_indices":[0,0,9,2,2,0,2,0,0,9,2,2,2,0,0,10,2,0,0,9,0,11,9,0,11,0,0,0,0,0,0,0,0,0,0,0,0,0,0,0,0],"split_type":[0,0,0,0,0,0,0,0,0,0,0,0,0,0,0,0,0,0,0,0,0,0,0,0,0,0,0,0,0,0,0,0,0,0,0,0,0,0,0,0,0],"sum_hessian":[5.08E2,2.27E2,2.81E2,1.47E2,8E1,2.16E2,6.5E1,2E1,1.27E2,4.2E1,3.8E1,9.3E1,1.23E2,5.2E1,1.3E1,8E1,4.7E1,2E1,2.2E1,2.7E1,1.1E1,5E1,4.3E1,2.9E1,9.4E1,4E1,4E1,2.3E1,2.4E1,7E0,2E1,4E0,7E0,3.7E1,1.3E1,3.1E1,1.2E1,1.5E1,1.4E1,3.2E1,6.2E1],"tree_param":{"num_deleted":"0","num_feature":"12","num_nodes":"41","size_leaf_vector":"1"}},{"base_weights":[4.193052E-5,9.903422E-2,-6.981564E-2,1.365696E-1,6.1274875E-2,-4.164409E-2,-1.2987201E-1,9.766263E-3,1.2538385E-1,8.08865E-2,2.353571E-2,-1.7726727E-2,-7.453291E-2,-4.9412805E-3,-1.607948E-1,7.0153656E-3,5.3505413E-3,9.282619E-2,6.1872702E-2,3.5405245E-2,-5.1320493E-3,7.6231794E-3,-4.078336E-2,-5.304435E-2,-4.646631E-3,-7.040637E-3,-9.820501E-3,4.9675447E-3,2.9294135E-3,3.1743974E-3,1.3086419E-3,2.3251337E-3,1.3636523E-3,2.5437048E-4,-8.099705E-4,1.1068936E-3,-6.210866E-4,-8.2157255E-4,-2.6284044E-3,-2.1612E-3,-3.3150464E-3],"categories":[],"categories_nodes":[],"categories_segments":[],"categories_sizes":[],"default_left":[0,0,0,0,0,0,0,0,0,0,0,0,0,0,0,0,0,0,0,0,0,0,0,0,0,0,0,0,0,0,0,0,0,0,0,0,0,0,0,0,0],"id":14,"left_children":[1,3,5,7,9,11,13,-1,15,17,19,21,23,-1,25,-1,-1,27,29,31,33,35,37,39,-1,-1,-1,-1,-1,-1,-1,-1,-1,-1,-1,-1,-1,-1,-1,-1,-1],"loss_changes":[3.526833E0,2.906847E-1,5.004642E-1,4.4518232E-2,7.728979E-2,1.5993461E-1,7.531333E-2,0E0,9.93681E-3,1.0147929E-2,1.311207E-2,7.044892E-2,2.9073417E-2,0E0,5.079508E-3,0E0,0E0,3.3382773E-3,6.825477E-5,1.1683851E-3,1.4396423E-3,1.7149845E-2,1.7216004E-2,2.6019514E-3,0E0,0E0,0E0,0E0,0E0,0E0,0E0,0E0,0E0,0E0,0E0,0E0,0E0,0E0,0E0,0E0,0E0],"parents":[2147483647,0,0,1,1,2,2,3,3,4,4,5,5,6,6,8,8,9,9,10,10,11,11,12,12,14,14,17,17,18,18,19,19,20,20,21,21,22,22,23,23],"right_children":[2,4,6,8,10,12,14,-1,16,18,20,22,24,-1,26,-1,-1,28,30,32,34,36,38,40,-1,-1,-1,-1,-1,-1,-1,-1,-1,-1,-1,-1,-1,-1,-1,-1,-1],"split_conditions":[3.888889E-1,1.6772152E-1,4.9802282E-1,2.2832558E-2,2.5284022E-1,4.1075087E-1,5.0496256E-1,9.766263E-3,1.1539946E0,4.7010922E-1,3.7249693E-1,5.261438E-1,6.424051E-1,-4.9412805E-3,8.4533894E-1,7.0153656E-3,5.3505413E-3,1.1597198E0,1.164293E0,4.49349E-1,3.5620916E-1,3.48313E-1,2.3187968E-1,4.9331746E-1,-4.646631E-3,-7.040637E-3,-9.820501E-3,4.9675447E-3,2.9294135E-3,3.1743974E-3,1.3086419E-3,2.3251337E-3,1.3636523E-3,2.5437048E-4,-8.099705E-4,1.1068936E-3,-6.210866E-4,-8.2157255E-4,-2.6284044E-3,-2.1612E-3,-3.3150464E-3],"split_indices":[0,0,9,2,2,2,9,0,10,9,2,0,0,0,2,0,0,10,10,9,0,2,2,9,0,0,0,0,0,0,0,0,0,0,0,0,0,0,0,0,0],"split_type":[0,0,0,0,0,0,0,0,0,0,0,0,0,0,0,0,0,0,0,0,0,0,0,0,0,0,0,0,0,0,0,0,0,0,0,0,0,0,0,0,0],"sum_hessian":[5.08E2,2.1E2,2.98E2,1.04E2,1.06E2,2.04E2,9.4E1,1.4E1,9E1,6.9E1,3.7E1,1.19E2,8.5E1,4.9E1,4.5E1,4.6E1,4.4E1,4E1,2.9E1,2.6E1,1.1E1,5.7E1,6.2E1,4.1E1,4.4E1,3.2E1,1.3E1,3.2E1,8E0,2.7E1,2E0,9E0,1.7E1,6E0,5E0,3.3E1,2.4E1,2.1E1,4.1E1,2.6E1,1.5E1],"tree_param":{"num_deleted":"0","num_feature":"12","num_nodes":"41","size_leaf_vector":"1"}},{"base_weights":[4.5242854E-5,9.581162E-2,-6.537946E-2,1.3139519E-1,6.1327957E-2,-2.26609E-2,-1.0193123E-1,9.569025E-3,1.21156946E-1,8.257235E-2,3.0222967E-2,4.453018E-3,-5.1833972E-2,-8.037179E-2,-1.5190963E-1,6.7663714E-3,5.1425337E-3,4.6266178E-3,3.1265912E-3,4.2785298E-2,4.779659E-3,2.3126986E-2,-6.1438605E-3,-4.090212E-2,-3.6416152E-3,-4.6732835E-2,-9.1047615E-2,-9.468119E-3,-6.7082667E-3,2.3388506E-3,1.1493615E-3,7.758154E-4,-3.9482638E-4,1.5707788E-3,1.5295943E-4,-6.016644E-4,8.7196473E-4,-2.166461E-3,-8.5477036E-4,-1.3720447E-3,-2.6250386E-3,-3.6232371E-3,-4.8890123E-3],"categories":[],"categories_nodes":[],"categories_segments":[],"categories_sizes":[],"default_left":[0,0,0,0,0,0,0,0,0,0,0,0,0,0,0,0,0,0,0,0,0,0,0,0,0,0,0,0,0,0,0,0,0,0,0,0,0,0,0,0,0,0,0],"id":15,"left_children":[1,3,5,7,9,11,13,-1,15,17,19,21,23,25,27,-1,-1,-1,-1,29,31,33,35,37,-1,39,41,-1,-1,-1,-1,-1,-1,-1,-1,-1,-1,-1,-1,-1,-1,-1,-1],"loss_changes":[3.1953971E0,2.4594152E-1,4.7080624E-1,3.8841486E-2,6.821072E-2,1.1176131E-1,1.6342425E-1,0E0,9.168863E-3,6.78879E-3,1.4178727E-2,1.4785636E-2,1.2630448E-2,3.7403405E-2,6.4935684E-3,0E0,0E0,0E0,0E0,1.295574E-3,2.3001214E-3,4.3949047E-3,6.876634E-3,1.9749925E-3,0E0,1.8975735E-3,3.7990808E-3,0E0,0E0,0E0,0E0,0E0,0E0,0E0,0E0,0E0,0E0,0E0,0E0,0E0,0E0,0E0,0E0],"parents":[2147483647,0,0,1,1,2,2,3,3,4,4,5,5,6,6,8,8,9,9,10,10,11,11,12,12,13,13,14,14,19,19,20,20,21,21,22,22,23,23,25,25,26,26],"right_children":[2,4,6,8,10,12,14,-1,16,18,20,22,24,26,28,-1,-1,-1,-1,30,32,34,36,38,-1,40,42,-1,-1,-1,-1,-1,-1,-1,-1,-1,-1,-1,-1,-1,-1,-1,-1],"split_conditions":[3.8235295E-1,1.613924E-1,6.617647E-1,2.217926E-2,2.2544816E-1,3.81035E-1,5.048599E-1,9.569025E-3,1.1539946E0,4.7010922E-1,3.3262745E-1,4.4444445E-1,4.940901E-1,2.9524484E-1,5.4073387E4,6.7663714E-3,5.1425337E-3,4.6266178E-3,3.1265912E-3,4.7693744E-1,3.4640524E-1,-3.9199598E-2,5.9687445E4,5.9177574E4,-3.6416152E-3,7.369281E-1,4.2340004E-1,-9.468119E-3,-6.7082667E-3,2.3388506E-3,1.1493615E-3,7.758154E-4,-3.9482638E-4,1.5707788E-3,1.5295943E-4,-6.016644E-4,8.7196473E-4,-2.166461E-3,-8.5477036E-4,-1.3720447E-3,-2.6250386E-3,-3.6232371E-3,-4.8890123E-3],"split_indices":[0,0,0,2,2,2,9,0,10,9,2,0,9,2,11,0,0,0,0,9,0,4,11,11,0,0,2,0,0,0,0,0,0,0,0,0,0,0,0,0,0,0,0],"split_type":[0,0,0,0,0,0,0,0,0,0,0,0,0,0,0,0,0,0,0,0,0,0,0,0,0,0,0,0,0,0,0,0,0,0,0,0,0,0,0,0,0,0,0],"sum_hessian":[5.08E2,2.06E2,3.02E2,1E2,1.06E2,1.4E2,1.62E2,1.2E1,8.8E1,6.2E1,4.4E1,7.3E1,6.7E1,1.15E2,4.7E1,4.6E1,4.2E1,3.9E1,2.3E1,2.9E1,1.5E1,2.6E1,4.7E1,4.6E1,2.1E1,2.9E1,8.6E1,1.2E1,3.5E1,2.3E1,6E0,8E0,7E0,1.8E1,8E0,3.8E1,9E0,4.1E1,5E0,8E0,2.1E1,2.6E1,6E1],"tree_param":{"num_deleted":"0","num_feature":"12","num_nodes":"43","size_leaf_vector":"1"}},{"base_weights":[4.2475745E-5,8.416819E-2,-6.7436606E-2,1.1137678E-1,3.2780204E-2,-4.8167404E-2,-1.3534509E-1,8.383037E-3,1.0127256E-1,5.3401075E-2,8.5834265E-3,-2.5112933E-2,-7.36175E-2,-6.0098437E-3,-8.934817E-3,7.19869E-2,1.09503E-1,6.292229E-2,1.8340737E-3,1.9897906E-2,-1.758944E-2,-5.934194E-3,-5.199862E-2,-5.0498936E-2,-8.397711E-2,4.27116E-3,2.794841E-3,5.6907143E-3,3.4560454E-3,3.4857825E-3,2.1172108E-3,1.4824227E-3,7.5013965E-4,-2.1474599E-4,-1.1849918E-3,5.0314582E-5,-1.6884009E-3,-1.8145137E-3,-3.1726963E-3,-1.9334186E-3,-3.2741376E-3,-4.3279934E-3,-2.6408962E-3],"categories":[],"categories_nodes":[],"categories_segments":[],"categories_sizes":[],"default_left":[0,0,0,0,0,0,0,0,0,0,0,0,0,0,0,0,0,0,0,0,0,0,0,0,0,0,0,0,0,0,0,0,0,0,0,0,0,0,0,0,0,0,0],"id":16,"left_children":[1,3,5,7,9,11,13,-1,15,17,19,21,23,-1,-1,25,27,29,-1,31,33,35,37,39,41,-1,-1,-1,-1,-1,-1,-1,-1,-1,-1,-1,-1,-1,-1,-1,-1,-1,-1],"loss_changes":[2.8951294E0,3.137393E-1,3.6379826E-1,6.718886E-2,3.9458327E-2,1.2840718E-1,1.9236326E-2,0E0,2.2969604E-2,4.5371354E-3,1.1603024E-2,6.053619E-2,2.0906687E-2,0E0,0E0,1.9270331E-3,9.194732E-3,6.8258494E-4,0E0,8.4390026E-4,8.730283E-4,1.3556596E-2,6.5144897E-3,3.6722347E-3,1.1419058E-3,0E0,0E0,0E0,0E0,0E0,0E0,0E0,0E0,0E0,0E0,0E0,0E0,0E0,0E0,0E0,0E0,0E0,0E0],"parents":[2147483647,0,0,1,1,2,2,3,3,4,4,5,5,6,6,8,8,9,9,10,10,11,11,12,12,15,15,16,16,17,17,19,19,20,20,21,21,22,22,23,23,24,24],"right_children":[2,4,6,8,10,12,14,-1,16,18,20,22,24,-1,-1,26,28,30,-1,32,34,36,38,40,42,-1,-1,-1,-1,-1,-1,-1,-1,-1,-1,-1,-1,-1,-1,-1,-1,-1,-1],"split_conditions":[4.2088607E-1,2.5E-1,5.02168E-1,2.333556E-2,2.7816784E-1,4.1075087E-1,8.4533894E-1,8.383037E-3,5.568508E4,4.7497377E-1,3.9307335E-1,6.424051E-1,6.1601305E-1,-6.0098437E-3,-8.934817E-3,1.8916272E-1,4.683734E-1,2.045071E-1,1.8340737E-3,4.4999263E-1,3.6928105E-1,1.205615E0,8.153595E-1,4.940901E-1,5.8985207E4,4.27116E-3,2.794841E-3,5.6907143E-3,3.4560454E-3,3.4857825E-3,2.1172108E-3,1.4824227E-3,7.5013965E-4,-2.1474599E-4,-1.1849918E-3,5.0314582E-5,-1.6884009E-3,-1.8145137E-3,-3.1726963E-3,-1.9334186E-3,-3.2741376E-3,-4.3279934E-3,-2.6408962E-3],"split_indices":[0,0,9,2,2,2,2,0,11,9,2,0,0,0,0,2,9,2,0,9,0,10,0,9,11,0,0,0,0,0,0,0,0,0,0,0,0,0,0,0,0,0,0],"split_type":[0,0,0,0,0,0,0,0,0,0,0,0,0,0,0,0,0,0,0,0,0,0,0,0,0,0,0,0,0,0,0,0,0,0,0,0,0,0,0,0,0,0,0],"sum_hessian":[5.08E2,2.26E2,2.82E2,1.47E2,7.9E1,2.21E2,6.1E1,2E1,1.27E2,4.2E1,3.7E1,1.17E2,1.04E2,4.8E1,1.3E1,3E1,9.7E1,2.5E1,1.7E1,2.6E1,1.1E1,6.9E1,4.8E1,3.4E1,7E1,1.4E1,1.6E1,8.6E1,1.1E1,1.7E1,8E0,7E0,1.9E1,4E0,7E0,5.6E1,1.3E1,2.2E1,2.6E1,2.1E1,1.3E1,6.3E1,7E0],"tree_param":{"num_deleted":"0","num_feature":"12","num_nodes":"43","size_leaf_vector":"1"}},{"base_weights":[3.8627324E-5,8.303718E-2,-6.192618E-2,1.0597414E-1,3.4055397E-2,-3.7893184E-2,-1.1294417E-1,7.983844E-3,9.633561E-2,5.2130535E-2,1.0397244E-2,-1.747229E-2,-6.5315895E-2,-4.4773747E-3,-7.222564E-3,6.861548E-2,1.0412121E-1,6.267248E-2,3.845497E-2,2.0510938E-2,-1.39039755E-2,4.9313507E-3,-3.5752296E-2,-4.762291E-2,-7.998471E-2,4.176273E-3,2.7401291E-3,5.960577E-3,4.5587663E-3,3.3127845E-3,1.5439958E-3,1.9988278E-3,8.2535547E-4,1.154121E-3,3.3185602E-4,-2.0615818E-4,-9.868662E-4,9.19302E-4,-5.436671E-4,-8.168523E-4,-2.3496512E-3,-1.9592345E-3,-3.054886E-3,-4.500796E-3,-3.3237953E-3],"categories":[],"categories_nodes":[],"categories_segments":[],"categories_sizes":[],"default_left":[0,0,0,0,0,0,0,0,0,0,0,0,0,0,0,0,0,0,0,0,0,0,0,0,0,0,0,0,0,0,0,0,0,0,0,0,0,0,0,0,0,0,0,0,0],"id":17,"left_children":[1,3,5,7,9,11,13,-1,15,17,19,21,23,-1,-1,25,27,29,31,33,35,37,39,41,43,-1,-1,-1,-1,-1,-1,-1,-1,-1,-1,-1,-1,-1,-1,-1,-1,-1,-1,-1,-1],"loss_changes":[2.622924E0,2.4131238E-1,3.5374582E-1,6.122458E-2,2.981931E-2,1.1085808E-1,5.562079E-2,0E0,2.0480394E-2,3.3566132E-3,8.149986E-3,4.7682803E-2,1.825136E-2,0E0,0E0,1.8070191E-3,8.2758665E-3,3.4634024E-4,8.014962E-6,6.6735316E-4,4.891687E-4,1.147022E-2,1.3199732E-2,2.2677407E-3,1.1405349E-4,0E0,0E0,0E0,0E0,0E0,0E0,0E0,0E0,0E0,0E0,0E0,0E0,0E0,0E0,0E0,0E0,0E0,0E0,0E0,0E0],"parents":[2147483647,0,0,1,1,2,2,3,3,4,4,5,5,6,6,8,8,9,9,10,10,11,11,12,12,15,15,16,16,17,17,18,18,19,19,20,20,21,21,22,22,23,23,24,24],"right_children":[2,4,6,8,10,12,14,-1,16,18,20,22,24,-1,-1,26,28,30,32,34,36,38,40,42,44,-1,-1,-1,-1,-1,-1,-1,-1,-1,-1,-1,-1,-1,-1,-1,-1,-1,-1,-1,-1],"split_conditions":[4.019608E-1,2.5E-1,4.981239E-1,2.333556E-2,2.7816784E-1,4.1075087E-1,5.063508E-1,7.983844E-3,5.568508E4,4.742377E-1,3.9307335E-1,5.261438E-1,6.424051E-1,-4.4773747E-3,-7.222564E-3,1.873109E-1,1.1344576E0,2.3475559E-1,5.2406543E-1,3.7249693E-1,3.6928105E-1,3.48313E-1,2.3322965E-1,4.940901E-1,5.4776555E4,4.176273E-3,2.7401291E-3,5.960577E-3,4.5587663E-3,3.3127845E-3,1.5439958E-3,1.9988278E-3,8.2535547E-4,1.154121E-3,3.3185602E-4,-2.0615818E-4,-9.868662E-4,9.19302E-4,-5.436671E-4,-8.168523E-4,-2.3496512E-3,-1.9592345E-3,-3.054886E-3,-4.500796E-3,-3.3237953E-3],"split_indices":[0,0,9,2,2,2,9,0,11,9,2,0,0,0,0,2,10,2,1,2,0,2,2,9,11,0,0,0,0,0,0,0,0,0,0,0,0,0,0,0,0,0,0,0,0],"split_type":[0,0,0,0,0,0,0,0,0,0,0,0,0,0,0,0,0,0,0,0,0,0,0,0,0,0,0,0,0,0,0,0,0,0,0,0,0,0,0,0,0,0,0,0,0],"sum_hessian":[5.08E2,2.17E2,2.91E2,1.47E2,7E1,1.99E2,9.2E1,2E1,1.27E2,3.9E1,3.1E1,1.15E2,8.4E1,5.5E1,3.7E1,3E1,9.7E1,2E1,1.9E1,2.2E1,9E0,5.2E1,6.3E1,4E1,4.4E1,1.2E1,1.8E1,4.1E1,5.6E1,1.7E1,3E0,1.7E1,2E0,1.8E1,4E0,4E0,5E0,2.8E1,2.4E1,2.4E1,3.9E1,2.7E1,1.3E1,2.2E1,2.2E1],"tree_param":{"num_deleted":"0","num_feature":"12","num_nodes":"45","size_leaf_vector":"1"}},{"base_weights":[4.8597107E-5,7.1879916E-2,-6.4814195E-2,9.874263E-2,2.2004038E-2,-4.7140695E-2,-1.2277549E-1,7.6036635E-3,8.984711E-2,3.8920354E-2,-3.757463E-3,-2.6937678E-2,-6.8077154E-2,-5.4289564E-3,-8.184653E-3,1.0277156E-1,7.205974E-2,4.67953E-2,2.3980677E-2,8.123777E-3,-2.2159593E-2,-1.297448E-2,-5.3003877E-2,-5.6044344E-2,-4.119569E-3,5.6969873E-3,4.3809195E-3,4.4130976E-3,2.7818908E-3,2.3782304E-3,5.5443647E-4,1.3509135E-3,4.7321199E-4,7.820911E-4,1.3552394E-4,-4.171574E-4,-1.3425929E-3,4.5892457E-4,-9.792931E-4,-1.9677775E-3,-2.9378454E-3,-3.0350608E-3,-1.5314248E-3],"categories":[],"categories_nodes":[],"categories_segments":[],"categories_sizes":[],"default_left":[0,0,0,0,0,0,0,0,0,0,0,0,0,0,0,0,0,0,0,0,0,0,0,0,0,0,0,0,0,0,0,0,0,0,0,0,0,0,0,0,0,0,0],"id":18,"left_children":[1,3,5,7,9,11,13,-1,15,17,19,21,23,-1,-1,25,27,29,31,33,35,37,39,41,-1,-1,-1,-1,-1,-1,-1,-1,-1,-1,-1,-1,-1,-1,-1,-1,-1,-1,-1],"loss_changes":[2.3761814E0,3.2205915E-1,2.6874578E-1,6.0817957E-2,3.7624154E-2,8.572295E-2,1.8240929E-2,0E0,2.4089575E-2,4.995562E-3,7.832424E-3,3.825683E-2,1.277867E-2,0E0,0E0,3.0477643E-3,1.1319667E-2,3.790632E-4,6.2619336E-4,8.529463E-4,6.835968E-4,1.0578555E-2,5.9280545E-4,5.005598E-3,0E0,0E0,0E0,0E0,0E0,0E0,0E0,0E0,0E0,0E0,0E0,0E0,0E0,0E0,0E0,0E0,0E0,0E0,0E0],"parents":[2147483647,0,0,1,1,2,2,3,3,4,4,5,5,6,6,8,8,9,9,10,10,11,11,12,12,15,15,16,16,17,17,18,18,19,19,20,20,21,21,22,22,23,23],"right_children":[2,4,6,8,10,12,14,-1,16,18,20,22,24,-1,-1,26,28,30,32,34,36,38,40,42,-1,-1,-1,-1,-1,-1,-1,-1,-1,-1,-1,-1,-1,-1,-1,-1,-1,-1,-1],"split_conditions":[4.4444445E-1,2.8104576E-1,5.02168E-1,2.333556E-2,3.1902584E-1,4.1075087E-1,8.4533894E-1,7.6036635E-3,1.5189873E-1,4.7693744E-1,4.176308E-1,7.369281E-1,7.107843E-1,-5.4289564E-3,-8.184653E-3,1.154418E0,1.6089062E-1,5.3429073E-1,1.1674917E0,3.3333334E-1,4.5848393E-1,1.1496236E0,8.227848E-1,5.903969E4,-4.119569E-3,5.6969873E-3,4.3809195E-3,4.4130976E-3,2.7818908E-3,2.3782304E-3,5.5443647E-4,1.3509135E-3,4.7321199E-4,7.820911E-4,1.3552394E-4,-4.171574E-4,-1.3425929E-3,4.5892457E-4,-9.792931E-4,-1.9677775E-3,-2.9378454E-3,-3.0350608E-3,-1.5314248E-3],"split_indices":[0,0,9,2,2,2,2,0,0,9,2,0,0,0,0,10,2,1,10,0,2,10,0,11,0,0,0,0,0,0,0,0,0,0,0,0,0,0,0,0,0,0,0],"split_type":[0,0,0,0,0,0,0,0,0,0,0,0,0,0,0,0,0,0,0,0,0,0,0,0,0,0,0,0,0,0,0,0,0,0,0,0,0,0,0,0,0,0,0],"sum_hessian":[5.08E2,2.41E2,2.67E2,1.56E2,8.5E1,2.06E2,6.1E1,2E1,1.36E2,5.1E1,3.4E1,1.06E2,1E2,4.8E1,1.3E1,7.6E1,6E1,3.2E1,1.9E1,2.1E1,1.3E1,7E1,3.6E1,5.7E1,4.3E1,4E1,3.6E1,2.8E1,3.2E1,3.1E1,1E0,1.5E1,4E0,8E0,1.3E1,4E0,9E0,1.6E1,5.4E1,1.3E1,2.3E1,4.7E1,1E1],"tree_param":{"num_deleted":"0","num_feature":"12","num_nodes":"43","size_leaf_vector":"1"}},{"base_weights":[4.8247675E-5,7.8640506E-2,-5.364365E-2,1.0790734E-1,5.0279845E-2,-1.5569318E-2,-8.140334E-2,8.021046E-3,9.902437E-2,6.775888E-2,2.4691865E-2,6.1699557E-3,-3.9161276E-2,-6.282237E-2,-1.218751E-1,5.5424664E-3,4.1898265E-3,7.581598E-2,5.150708E-2,3.3484142E-2,4.7363684E-4,6.689245E-4,2.7340438E-2,-3.0885592E-2,-2.9625345E-3,-3.6043286E-2,-7.11629E-2,-5.414914E-3,-8.018457E-3,4.2212335E-3,2.9601397E-3,2.661922E-3,1.0820706E-3,1.856708E-3,9.812368E-4,4.952818E-4,-3.3297838E-4,1.632013E-3,-1.590507E-4,1.5186077E-3,6.084055E-4,-1.6958406E-3,-8.290762E-4,-1.1771034E-3,-2.0870927E-3,-1.6157437E-3,-3.6280756E-3],"categories":[],"categories_nodes":[],"categories_segments":[],"categories_sizes":[],"default_left":[0,0,0,0,0,0,0,0,0,0,0,0,0,0,0,0,0,0,0,0,0,0,0,0,0,0,0,0,0,0,0,0,0,0,0,0,0,0,0,0,0,0,0,0,0,0,0],"id":19,"left_children":[1,3,5,7,9,11,13,-1,15,17,19,21,23,25,27,-1,-1,29,31,33,35,37,39,41,-1,43,45,-1,-1,-1,-1,-1,-1,-1,-1,-1,-1,-1,-1,-1,-1,-1,-1,-1,-1,-1,-1],"loss_changes":[2.1520803E0,1.6638994E-1,3.189829E-1,3.1228542E-2,4.618299E-2,6.640211E-2,1.2394428E-1,0E0,6.737292E-3,4.3443143E-3,9.566139E-3,7.900957E-3,8.477733E-3,2.4683952E-2,1.0854125E-2,0E0,0E0,7.225424E-4,8.884072E-5,9.4062835E-4,9.4061217E-4,6.873651E-3,2.744021E-4,1.4321096E-3,0E0,1.2257174E-3,2.6538372E-3,0E0,0E0,0E0,0E0,0E0,0E0,0E0,0E0,0E0,0E0,0E0,0E0,0E0,0E0,0E0,0E0,0E0,0E0,0E0,0E0],"parents":[2147483647,0,0,1,1,2,2,3,3,4,4,5,5,6,6,8,8,9,9,10,10,11,11,12,12,13,13,14,14,17,17,18,18,19,19,20,20,21,21,22,22,23,23,25,25,26,26],"right_children":[2,4,6,8,10,12,14,-1,16,18,20,22,24,26,28,-1,-1,30,32,34,36,38,40,42,-1,44,46,-1,-1,-1,-1,-1,-1,-1,-1,-1,-1,-1,-1,-1,-1,-1,-1,-1,-1,-1,-1],"split_conditions":[3.8235295E-1,1.613924E-1,6.36076E-1,2.217926E-2,2.2544816E-1,3.7814352E-1,5.0317633E-1,8.021046E-3,1.1539946E0,4.7010922E-1,3.530876E-1,5.9725797E4,4.940901E-1,2.9398584E-1,8.7612844E-1,5.5424664E-3,4.1898265E-3,1.5117373E-1,3.627451E-1,5.0058764E-1,3.4640524E-1,4.5079568E-1,4.81457E-1,5.9151355E4,-2.9625345E-3,7.369281E-1,4.648504E-1,-5.414914E-3,-8.018457E-3,4.2212335E-3,2.9601397E-3,2.661922E-3,1.0820706E-3,1.856708E-3,9.812368E-4,4.952818E-4,-3.3297838E-4,1.632013E-3,-1.590507E-4,1.5186077E-3,6.084055E-4,-1.6958406E-3,-8.290762E-4,-1.1771034E-3,-2.0870927E-3,-1.6157437E-3,-3.6280756E-3],"split_indices":[0,0,0,2,2,2,9,0,10,9,2,11,9,2,2,0,0,2,0,1,0,9,9,11,0,0,9,0,0,0,0,0,0,0,0,0,0,0,0,0,0,0,0,0,0,0,0],"split_type":[0,0,0,0,0,0,0,0,0,0,0,0,0,0,0,0,0,0,0,0,0,0,0,0,0,0,0,0,0,0,0,0,0,0,0,0,0,0,0,0,0,0,0,0,0,0,0],"sum_hessian":[5.08E2,2.06E2,3.02E2,1E2,1.06E2,1.28E2,1.74E2,1.2E1,8.8E1,6.2E1,4.4E1,6.7E1,6.1E1,1.21E2,5.3E1,4.6E1,4.2E1,3.9E1,2.3E1,3.2E1,1.2E1,5.4E1,1.3E1,4.5E1,1.6E1,3E1,9.1E1,4.2E1,1.1E1,2.3E1,1.6E1,2.1E1,2E0,2.4E1,8E0,5E0,7E0,5E0,4.9E1,1E1,3E0,3.6E1,9E0,1.1E1,1.9E1,4E0,8.7E1],"tree_param":{"num_deleted":"0","num_feature":"12","num_nodes":"47","size_leaf_vector":"1"}},{"base_weights":[6.127311E-5,6.515003E-2,-5.871313E-2,8.944909E-2,2.0032553E-2,-4.2679634E-2,-1.1129734E-1,6.906842E-3,8.133309E-2,3.535734E-2,-3.3080613E-3,-2.4334276E-2,-6.169224E-2,-7.21699E-3,-4.8333243E-3,9.299599E-2,6.5277755E-2,4.3885693E-2,2.3579026E-2,7.459375E-3,-1.9992027E-2,-1.1505468E-2,-4.7325917E-2,-5.0669745E-2,-3.7409903E-3,5.1290584E-3,3.928145E-3,3.9961147E-3,2.52151E-3,2.5828767E-3,1.7171238E-3,1.3052821E-3,4.3783785E-4,6.9992675E-4,1.3614084E-4,-3.7352563E-4,-1.2126792E-3,4.3536146E-4,-8.82783E-4,-1.7563574E-3,-2.6489117E-3,-2.742158E-3,-1.3926068E-3],"categories":[],"categories_nodes":[],"categories_segments":[],"categories_sizes":[],"default_left":[0,0,0,0,0,0,0,0,0,0,0,0,0,0,0,0,0,0,0,0,0,0,0,0,0,0,0,0,0,0,0,0,0,0,0,0,0,0,0,0,0,0,0],"id":20,"left_children":[1,3,5,7,9,11,13,-1,15,17,19,21,23,-1,-1,25,27,29,31,33,35,37,39,41,-1,-1,-1,-1,-1,-1,-1,-1,-1,-1,-1,-1,-1,-1,-1,-1,-1,-1,-1],"loss_changes":[1.9510314E0,2.635157E-1,2.2120297E-1,5.0803423E-2,3.0878298E-2,7.069898E-2,1.6020536E-2,0E0,1.9582927E-2,4.188597E-3,6.436652E-3,3.1015716E-2,1.0823429E-2,0E0,0E0,2.593398E-3,9.2330575E-3,3.7683174E-4,6.702021E-4,6.4329314E-4,5.6586927E-4,8.855569E-3,7.5916946E-4,3.995687E-3,0E0,0E0,0E0,0E0,0E0,0E0,0E0,0E0,0E0,0E0,0E0,0E0,0E0,0E0,0E0,0E0,0E0,0E0,0E0],"parents":[2147483647,0,0,1,1,2,2,3,3,4,4,5,5,6,6,8,8,9,9,10,10,11,11,12,12,15,15,16,16,17,17,18,18,19,19,20,20,21,21,22,22,23,23],"right_children":[2,4,6,8,10,12,14,-1,16,18,20,22,24,-1,-1,26,28,30,32,34,36,38,40,42,-1,-1,-1,-1,-1,-1,-1,-1,-1,-1,-1,-1,-1,-1,-1,-1,-1,-1,-1],"split_conditions":[4.4444445E-1,2.8104576E-1,5.02168E-1,2.333556E-2,3.1902584E-1,4.1075087E-1,5.415032E4,6.906842E-3,1.5189873E-1,4.7627535E-1,4.176308E-1,7.238562E-1,7.107843E-1,-7.21699E-3,-4.8333243E-3,1.1544714E0,1.6089062E-1,2.045071E-1,1.1674917E0,3.3333334E-1,4.5848393E-1,1.1496236E0,8.227848E-1,5.903969E4,-3.7409903E-3,5.1290584E-3,3.928145E-3,3.9961147E-3,2.52151E-3,2.5828767E-3,1.7171238E-3,1.3052821E-3,4.3783785E-4,6.9992675E-4,1.3614084E-4,-3.7352563E-4,-1.2126792E-3,4.3536146E-4,-8.82783E-4,-1.7563574E-3,-2.6489117E-3,-2.742158E-3,-1.3926068E-3],"split_indices":[0,0,9,2,2,2,11,0,0,9,2,0,0,0,0,10,2,2,10,0,2,10,0,11,0,0,0,0,0,0,0,0,0,0,0,0,0,0,0,0,0,0,0],"split_type":[0,0,0,0,0,0,0,0,0,0,0,0,0,0,0,0,0,0,0,0,0,0,0,0,0,0,0,0,0,0,0,0,0,0,0,0,0,0,0,0,0,0,0],"sum_hessian":[5.08E2,2.41E2,2.67E2,1.56E2,8.5E1,2.06E2,6.1E1,2E1,1.36E2,5.1E1,3.4E1,1.06E2,1E2,1.6E1,4.5E1,7.6E1,6E1,2.8E1,2.3E1,2.1E1,1.3E1,6.9E1,3.7E1,5.7E1,4.3E1,4.2E1,3.4E1,2.8E1,3.2E1,1.3E1,1.5E1,1.9E1,4E0,8E0,1.3E1,4E0,9E0,1.6E1,5.3E1,1.4E1,2.3E1,4.7E1,1E1],"tree_param":{"num_deleted":"0","num_feature":"12","num_nodes":"43","size_leaf_vector":"1"}},{"base_weights":[6.4089865E-5,6.2007286E-2,-5.586993E-2,8.5542515E-2,1.9848557E-2,-4.1534673E-2,-1.09397426E-1,7.332068E-3,7.938988E-2,3.4396585E-2,-3.1640735E-3,-2.316293E-2,-5.951824E-2,-7.432463E-3,-4.881646E-3,9.0213045E-2,6.245158E-2,4.25184E-2,2.2472715E-2,7.1244296E-3,-1.9105716E-2,-1.1176331E-2,-4.5538217E-2,-4.535121E-2,-3.434641E-3,5.035822E-3,3.8242314E-3,3.8269802E-3,2.4086472E-3,2.4823349E-3,1.6366352E-3,1.3722203E-3,7.051067E-4,6.688211E-4,1.298202E-4,-3.5858632E-4,-1.158107E-3,4.1487426E-4,-8.4961526E-4,-1.6941509E-3,-2.5219829E-3,-2.4307852E-3,-1.0342292E-3],"categories":[],"categories_nodes":[],"categories_segments":[],"categories_sizes":[],"default_left":[0,0,0,0,0,0,0,0,0,0,0,0,0,0,0,0,0,0,0,0,0,0,0,0,0,0,0,0,0,0,0,0,0,0,0,0,0,0,0,0,0,0,0],"id":21,"left_children":[1,3,5,7,9,11,13,-1,15,17,19,21,23,-1,-1,25,27,29,31,33,35,37,39,41,-1,-1,-1,-1,-1,-1,-1,-1,-1,-1,-1,-1,-1,-1,-1,-1,-1,-1,-1],"loss_changes":[1.7670128E0,2.3841822E-1,2.0110065E-1,4.6625495E-2,2.9570214E-2,6.899437E-2,1.1346579E-2,0E0,2.0581722E-2,4.2740405E-3,5.8766645E-3,2.8188832E-2,1.0792166E-2,0E0,0E0,4.553318E-3,8.1811845E-3,5.3734705E-4,6.117569E-4,5.880712E-4,5.1161787E-4,8.182397E-3,4.0466338E-4,2.6179776E-3,0E0,0E0,0E0,0E0,0E0,0E0,0E0,0E0,0E0,0E0,0E0,0E0,0E0,0E0,0E0,0E0,0E0,0E0,0E0],"parents":[2147483647,0,0,1,1,2,2,3,3,4,4,5,5,6,6,8,8,9,9,10,10,11,11,12,12,15,15,16,16,17,17,18,18,19,19,20,20,21,21,22,22,23,23],"right_children":[2,4,6,8,10,12,14,-1,16,18,20,22,24,-1,-1,26,28,30,32,34,36,38,40,42,-1,-1,-1,-1,-1,-1,-1,-1,-1,-1,-1,-1,-1,-1,-1,-1,-1,-1,-1],"split_conditions":[4.4444445E-1,2.7450982E-1,5.030736E-1,2.217926E-2,3.1902584E-1,4.1075087E-1,5.4029277E4,7.332068E-3,1.5189873E-1,4.7627535E-1,4.176308E-1,7.369281E-1,6.613924E-1,-7.432463E-3,-4.881646E-3,1.1539946E0,1.6089062E-1,2.1731113E-1,1.1453943E0,3.3333334E-1,4.5848393E-1,1.1496236E0,8.227848E-1,5.9090203E4,-3.434641E-3,5.035822E-3,3.8242314E-3,3.8269802E-3,2.4086472E-3,2.4823349E-3,1.6366352E-3,1.3722203E-3,7.051067E-4,6.688211E-4,1.298202E-4,-3.5858632E-4,-1.158107E-3,4.1487426E-4,-8.4961526E-4,-1.6941509E-3,-2.5219829E-3,-2.4307852E-3,-1.0342292E-3],"split_indices":[0,0,9,2,2,2,11,0,0,9,2,0,0,0,0,10,2,2,10,0,2,10,0,11,0,0,0,0,0,0,0,0,0,0,0,0,0,0,0,0,0,0,0],"split_type":[0,0,0,0,0,0,0,0,0,0,0,0,0,0,0,0,0,0,0,0,0,0,0,0,0,0,0,0,0,0,0,0,0,0,0,0,0,0,0,0,0,0,0],"sum_hessian":[5.08E2,2.41E2,2.67E2,1.54E2,8.7E1,2.12E2,5.5E1,1.2E1,1.42E2,5.3E1,3.4E1,1.06E2,1.06E2,1E1,4.5E1,8.4E1,5.8E1,3E1,2.3E1,2.1E1,1.3E1,7E1,3.6E1,4.4E1,6.2E1,4.4E1,4E1,2.7E1,3.1E1,1.5E1,1.5E1,1.3E1,1E1,8E0,1.3E1,4E0,9E0,1.6E1,5.4E1,1.3E1,2.3E1,3.8E1,6E0],"tree_param":{"num_deleted":"0","num_feature":"12","num_nodes":"43","size_leaf_vector":"1"}},{"base_weights":[6.882615E-5,5.9957854E-2,-5.2334327E-2,8.284288E-2,2.2079378E-2,-3.872202E-2,-1.0414747E-1,6.993664E-3,7.67823E-2,3.5513666E-2,-1.4873287E-3,-2.109522E-2,-5.6316704E-2,-4.6162494E-3,-6.990141E-3,5.292954E-2,8.303375E-2,4.5087695E-2,2.3645503E-2,8.171662E-3,-1.7718902E-2,-6.73813E-3,-3.883082E-2,-3.8365174E-2,-6.3045695E-2,3.3443868E-3,2.1548825E-3,4.8017497E-3,3.6129055E-3,2.6798442E-3,1.6880262E-3,1.2976297E-3,3.921187E-4,6.593721E-4,1.4464458E-4,-3.4424305E-4,-1.0884524E-3,-4.0435185E-5,-1.3504914E-3,-1.3779624E-3,-2.3497175E-3,-1.3924505E-3,-2.4213444E-3,-3.2684512E-3,-2.047124E-3],"categories":[],"categories_nodes":[],"categories_segments":[],"categories_sizes":[],"default_left":[0,0,0,0,0,0,0,0,0,0,0,0,0,0,0,0,0,0,0,0,0,0,0,0,0,0,0,0,0,0,0,0,0,0,0,0,0,0,0,0,0,0,0,0,0],"id":22,"left_children":[1,3,5,7,9,11,13,-1,15,17,19,21,23,-1,-1,25,27,29,31,33,35,37,39,41,43,-1,-1,-1,-1,-1,-1,-1,-1,-1,-1,-1,-1,-1,-1,-1,-1,-1,-1,-1,-1],"loss_changes":[1.6005702E0,2.0448107E-1,1.878078E-1,4.041457E-2,2.8863601E-2,6.611192E-2,1.0698736E-2,0E0,1.5884578E-2,5.5241957E-3,5.4753334E-3,2.7747829E-2,1.062718E-2,0E0,0E0,1.3715997E-3,7.910907E-3,1.1784807E-3,8.173287E-4,5.4434733E-4,4.205564E-4,7.430529E-3,3.2136515E-3,2.0373054E-3,1.2778044E-3,0E0,0E0,0E0,0E0,0E0,0E0,0E0,0E0,0E0,0E0,0E0,0E0,0E0,0E0,0E0,0E0,0E0,0E0,0E0,0E0],"parents":[2147483647,0,0,1,1,2,2,3,3,4,4,5,5,6,6,8,8,9,9,10,10,11,11,12,12,15,15,16,16,17,17,18,18,19,19,20,20,21,21,22,22,23,23,24,24],"right_children":[2,4,6,8,10,12,14,-1,16,18,20,22,24,-1,-1,26,28,30,32,34,36,38,40,42,44,-1,-1,-1,-1,-1,-1,-1,-1,-1,-1,-1,-1,-1,-1,-1,-1,-1,-1,-1,-1],"split_conditions":[4.379085E-1,2.5E-1,5.030736E-1,2.217926E-2,3.1902584E-1,4.1075087E-1,8.7612844E-1,6.993664E-3,5.568508E4,4.7497377E-1,4.176308E-1,6.424051E-1,6.1601305E-1,-4.6162494E-3,-6.990141E-3,1.7165281E-1,1.1336278E0,1.7677177E-1,1.1674917E0,4.5296648E-1,4.5848393E-1,1.205615E0,8.153595E-1,5.29832E-1,5.8968152E4,3.3443868E-3,2.1548825E-3,4.8017497E-3,3.6129055E-3,2.6798442E-3,1.6880262E-3,1.2976297E-3,3.921187E-4,6.593721E-4,1.4464458E-4,-3.4424305E-4,-1.0884524E-3,-4.0435185E-5,-1.3504914E-3,-1.3779624E-3,-2.3497175E-3,-1.3924505E-3,-2.4213444E-3,-3.2684512E-3,-2.047124E-3],"split_indices":[0,0,9,2,2,2,2,0,11,9,2,0,0,0,0,2,10,2,10,9,2,10,0,2,11,0,0,0,0,0,0,0,0,0,0,0,0,0,0,0,0,0,0,0,0],"split_type":[0,0,0,0,0,0,0,0,0,0,0,0,0,0,0,0,0,0,0,0,0,0,0,0,0,0,0,0,0,0,0,0,0,0,0,0,0,0,0,0,0,0,0,0,0],"sum_hessian":[5.08E2,2.37E2,2.71E2,1.47E2,9E1,2.16E2,5.5E1,1.2E1,1.35E2,5.7E1,3.3E1,1.09E2,1.07E2,4.4E1,1.1E1,3E1,1.05E2,3E1,2.7E1,2.1E1,1.2E1,6.1E1,4.8E1,3.1E1,7.6E1,1E1,2E1,4.4E1,6.1E1,1.5E1,1.5E1,2.3E1,4E0,1E1,1.1E1,4E0,8E0,4.8E1,1.3E1,2.2E1,2.6E1,1.7E1,1.4E1,6.7E1,9E0],"tree_param":{"num_deleted":"0","num_feature":"12","num_nodes":"45","size_leaf_vector":"1"}},{"base_weights":[6.635063E-5,5.6188997E-2,-5.061181E-2,7.7108756E-2,1.7344913E-2,-3.7896074E-2,-1.0030202E-1,6.6708797E-3,7.152859E-2,3.0646004E-2,-2.9122762E-3,-2.1012887E-2,-5.4121807E-2,-6.776888E-3,-4.460675E-3,8.172055E-2,5.6154087E-2,3.6966845E-2,1.8684316E-2,5.9293974E-3,-1.8331217E-2,-9.8948395E-3,-4.094053E-2,-4.230843E-2,-3.1708025E-3,4.5591323E-3,3.4671072E-3,3.451485E-3,2.1568758E-3,2.1658612E-3,1.4634175E-3,1.0501336E-3,3.7643552E-4,5.264044E-4,-2.2227114E-6,-3.4009965E-4,-1.0554892E-3,3.9725375E-4,-7.6639355E-4,-1.524127E-3,-2.288546E-3,-1.5887566E-3,-2.5247254E-3],"categories":[],"categories_nodes":[],"categories_segments":[],"categories_sizes":[],"default_left":[0,0,0,0,0,0,0,0,0,0,0,0,0,0,0,0,0,0,0,0,0,0,0,0,0,0,0,0,0,0,0,0,0,0,0,0,0,0,0,0,0,0,0],"id":23,"left_children":[1,3,5,7,9,11,13,-1,15,17,19,21,23,-1,-1,25,27,29,31,33,35,37,39,41,-1,-1,-1,-1,-1,-1,-1,-1,-1,-1,-1,-1,-1,-1,-1,-1,-1,-1,-1],"loss_changes":[1.4505378E0,1.9531393E-1,1.6553414E-1,3.9788127E-2,2.3261318E-2,5.77603E-2,9.006619E-3,0E0,1.8132031E-2,3.2409132E-3,4.880216E-3,2.3301449E-2,9.284794E-3,0E0,0E0,3.632784E-3,7.2456E-3,3.4549087E-4,3.5913056E-4,6.3232164E-4,2.728626E-4,6.9065182E-3,5.243942E-4,2.7930737E-3,0E0,0E0,0E0,0E0,0E0,0E0,0E0,0E0,0E0,0E0,0E0,0E0,0E0,0E0,0E0,0E0,0E0,0E0,0E0],"parents":[2147483647,0,0,1,1,2,2,3,3,4,4,5,5,6,6,8,8,9,9,10,10,11,11,12,12,15,15,16,16,17,17,18,18,19,19,20,20,21,21,22,22,23,23],"right_children":[2,4,6,8,10,12,14,-1,16,18,20,22,24,-1,-1,26,28,30,32,34,36,38,40,42,-1,-1,-1,-1,-1,-1,-1,-1,-1,-1,-1,-1,-1,-1,-1,-1,-1,-1,-1],"split_conditions":[4.4444445E-1,2.8104576E-1,5.0317633E-1,2.217926E-2,3.1902584E-1,4.1075087E-1,5.4029277E4,6.6708797E-3,1.5189873E-1,4.7693744E-1,4.8556387E-1,7.238562E-1,6.8037975E-1,-6.776888E-3,-4.460675E-3,1.1539946E0,1.6089062E-1,2.045071E-1,1.1674917E0,4.806502E-1,4.5848393E-1,1.1496236E0,8.227848E-1,4.940901E-1,-3.1708025E-3,4.5591323E-3,3.4671072E-3,3.451485E-3,2.1568758E-3,2.1658612E-3,1.4634175E-3,1.0501336E-3,3.7643552E-4,5.264044E-4,-2.2227114E-6,-3.4009965E-4,-1.0554892E-3,3.9725375E-4,-7.6639355E-4,-1.524127E-3,-2.288546E-3,-1.5887566E-3,-2.5247254E-3],"split_indices":[0,0,9,2,2,2,11,0,0,9,9,0,0,0,0,10,2,2,10,9,2,10,0,9,0,0,0,0,0,0,0,0,0,0,0,0,0,0,0,0,0,0,0],"split_type":[0,0,0,0,0,0,0,0,0,0,0,0,0,0,0,0,0,0,0,0,0,0,0,0,0,0,0,0,0,0,0,0,0,0,0,0,0,0,0,0,0,0,0],"sum_hessian":[5.08E2,2.41E2,2.67E2,1.56E2,8.5E1,2.14E2,5.3E1,1.2E1,1.44E2,5.1E1,3.4E1,1.06E2,1.08E2,1E1,4.3E1,8.4E1,6E1,3.2E1,1.9E1,2.2E1,1.2E1,6.9E1,3.7E1,5E1,5.8E1,4.4E1,4E1,2.8E1,3.2E1,1.5E1,1.7E1,1.5E1,4E0,1.2E1,1E1,3E0,9E0,1.6E1,5.3E1,1.4E1,2.3E1,2.4E1,2.6E1],"tree_param":{"num_deleted":"0","num_feature":"12","num_nodes":"43","size_leaf_vector":"1"}},{"base_weights":[6.6552275E-5,5.348075E-2,-4.816592E-2,7.5064234E-2,1.9292997E-2,-3.605459E-2,-9.5495E-2,1.2725991E-1,6.9523E-2,3.1866595E-2,-2.1989148E-3,-2.0001313E-2,-5.1482532E-2,-6.468845E-3,-4.2427094E-3,6.578588E-3,1.8879414E-3,4.7834318E-2,7.521004E-2,4.0564656E-2,2.1169884E-2,6.7157485E-3,-1.6687367E-2,-9.613803E-3,-3.939353E-2,-3.5045166E-2,-5.7280958E-2,3.0362618E-3,1.9402056E-3,4.2759837E-3,3.2047648E-3,2.4326418E-3,1.5283049E-3,1.2935663E-3,6.6966965E-4,6.2826637E-4,1.02889106E-4,-3.202462E-4,-1.0079927E-3,1.650189E-4,-8.3520636E-4,-1.5336251E-3,-2.2288763E-3,-1.2569715E-3,-2.1967662E-3,-2.968813E-3,-1.8442869E-3],"categories":[],"categories_nodes":[],"categories_segments":[],"categories_sizes":[],"default_left":[0,0,0,0,0,0,0,0,0,0,0,0,0,0,0,0,0,0,0,0,0,0,0,0,0,0,0,0,0,0,0,0,0,0,0,0,0,0,0,0,0,0,0,0,0,0,0],"id":24,"left_children":[1,3,5,7,9,11,13,15,17,19,21,23,25,-1,-1,-1,-1,27,29,31,33,35,37,39,41,43,45,-1,-1,-1,-1,-1,-1,-1,-1,-1,-1,-1,-1,-1,-1,-1,-1,-1,-1,-1,-1],"loss_changes":[1.313912E0,1.7712134E-1,1.5017945E-1,3.3958375E-2,2.574198E-2,5.2219093E-2,8.490503E-3,4.889071E-5,1.3177216E-2,4.7236867E-3,4.761817E-3,2.1175016E-2,8.381456E-3,0E0,0E0,0E0,0E0,1.2522414E-3,6.665051E-3,1.1007152E-3,7.1375724E-4,6.008274E-4,3.7075626E-4,6.5562967E-3,3.054589E-4,1.6254596E-3,1.1858642E-3,0E0,0E0,0E0,0E0,0E0,0E0,0E0,0E0,0E0,0E0,0E0,0E0,0E0,0E0,0E0,0E0,0E0,0E0,0E0,0E0],"parents":[2147483647,0,0,1,1,2,2,3,3,4,4,5,5,6,6,7,7,8,8,9,9,10,10,11,11,12,12,17,17,18,18,19,19,20,20,21,21,22,22,23,23,24,24,25,25,26,26],"right_children":[2,4,6,8,10,12,14,16,18,20,22,24,26,-1,-1,-1,-1,28,30,32,34,36,38,40,42,44,46,-1,-1,-1,-1,-1,-1,-1,-1,-1,-1,-1,-1,-1,-1,-1,-1,-1,-1,-1,-1],"split_conditions":[4.4444445E-1,2.5E-1,5.0317633E-1,2.217926E-2,3.1902584E-1,4.1075087E-1,5.4029277E4,7.189543E-2,5.568508E4,4.7497377E-1,4.176308E-1,7.369281E-1,6.1601305E-1,-6.468845E-3,-4.2427094E-3,6.578588E-3,1.8879414E-3,1.7165281E-1,1.1345977E0,1.7677177E-1,1.1453943E0,3.3333334E-1,4.5848393E-1,1.1518039E0,8.449367E-1,5.29832E-1,5.8968152E4,3.0362618E-3,1.9402056E-3,4.2759837E-3,3.2047648E-3,2.4326418E-3,1.5283049E-3,1.2935663E-3,6.6966965E-4,6.2826637E-4,1.02889106E-4,-3.202462E-4,-1.0079927E-3,1.650189E-4,-8.3520636E-4,-1.5336251E-3,-2.2288763E-3,-1.2569715E-3,-2.1967662E-3,-2.968813E-3,-1.8442869E-3],"split_indices":[0,0,9,2,2,2,11,0,11,9,2,0,0,0,0,0,0,2,10,2,10,0,2,10,0,2,11,0,0,0,0,0,0,0,0,0,0,0,0,0,0,0,0,0,0,0,0],"split_type":[0,0,0,0,0,0,0,0,0,0,0,0,0,0,0,0,0,0,0,0,0,0,0,0,0,0,0,0,0,0,0,0,0,0,0,0,0,0,0,0,0,0,0,0,0,0,0],"sum_hessian":[5.08E2,2.41E2,2.67E2,1.47E2,9.4E1,2.14E2,5.3E1,1.2E1,1.35E2,5.9E1,3.5E1,1.06E2,1.08E2,1E1,4.3E1,1.1E1,1E0,3E1,1.05E2,3.1E1,2.8E1,2.2E1,1.3E1,7E1,3.6E1,3E1,7.8E1,1E1,2E1,5.1E1,5.4E1,1.5E1,1.6E1,1.6E1,1.2E1,9E0,1.3E1,4E0,9E0,2.5E1,4.5E1,1.6E1,2E1,1.6E1,1.4E1,6.9E1,9E0],"tree_param":{"num_deleted":"0","num_feature":"12","num_nodes":"47","size_leaf_vector":"1"}},{"base_weights":[6.878657E-5,5.510416E-2,-4.2354554E-2,7.145236E-2,2.2108996E-2,-2.543401E-2,-7.541012E-2,6.07741E-3,6.61384E-2,3.517557E-2,6.1707566E-3,-9.4941E-3,-4.1951213E-2,-6.2115088E-2,-5.2977237E-3,4.5603108E-2,7.152005E-2,2.3527576E-3,1.4318643E-3,1.3165422E-2,-1.0287187E-2,1.8757205E-3,-2.6311478E-2,-3.5057552E-2,-3.1459376E-3,-2.7328737E-3,-3.5983843E-3,2.8982498E-3,1.8478128E-3,4.0662936E-3,3.0474372E-3,7.6910225E-4,3.2661707E-4,-1.578331E-4,-6.955411E-4,2.805836E-4,-9.959096E-4,-8.841266E-4,-1.5960295E-3,-1.8884436E-3,-8.171028E-4],"categories":[],"categories_nodes":[],"categories_segments":[],"categories_sizes":[],"default_left":[0,0,0,0,0,0,0,0,0,0,0,0,0,0,0,0,0,0,0,0,0,0,0,0,0,0,0,0,0,0,0,0,0,0,0,0,0,0,0,0,0],"id":25,"left_children":[1,3,5,7,9,11,13,-1,15,17,19,21,23,25,-1,27,29,-1,-1,31,33,35,37,39,-1,-1,-1,-1,-1,-1,-1,-1,-1,-1,-1,-1,-1,-1,-1,-1,-1],"loss_changes":[1.1907392E0,1.18169606E-1,1.5916562E-1,3.1359613E-2,1.5402302E-2,5.0151996E-2,3.2809198E-2,0E0,1.1768341E-2,1.8370226E-3,4.164559E-3,1.89792E-2,1.13812685E-2,1.2098253E-3,0E0,1.1714622E-3,6.0313344E-3,0E0,0E0,2.6709493E-4,2.403108E-4,4.997034E-3,1.3715904E-3,3.087066E-3,0E0,0E0,0E0,0E0,0E0,0E0,0E0,0E0,0E0,0E0,0E0,0E0,0E0,0E0,0E0,0E0,0E0],"parents":[2147483647,0,0,1,1,2,2,3,3,4,4,5,5,6,6,8,8,9,9,10,10,11,11,12,12,13,13,15,15,16,16,19,19,20,20,21,21,22,22,23,23],"right_children":[2,4,6,8,10,12,14,-1,16,18,20,22,24,26,-1,28,30,-1,-1,32,34,36,38,40,-1,-1,-1,-1,-1,-1,-1,-1,-1,-1,-1,-1,-1,-1,-1,-1,-1],"split_conditions":[4.0849674E-1,2.5E-1,4.9783808E-1,2.217926E-2,2.7816784E-1,3.9307335E-1,5.0801885E-1,6.07741E-3,5.568508E4,1.1855984E-1,3.9307335E-1,6.1601305E-1,1.214825E0,6.311274E-1,-5.2977237E-3,1.7165281E-1,1.1345977E0,2.3527576E-3,1.4318643E-3,5.1874626E-1,3.6928105E-1,1.205615E0,2.4866873E-1,5.9090203E4,-3.1459376E-3,-2.7328737E-3,-3.5983843E-3,2.8982498E-3,1.8478128E-3,4.0662936E-3,3.0474372E-3,7.6910225E-4,3.2661707E-4,-1.578331E-4,-6.955411E-4,2.805836E-4,-9.959096E-4,-8.841266E-4,-1.5960295E-3,-1.8884436E-3,-8.171028E-4],"split_indices":[0,0,9,2,2,2,9,0,11,2,2,0,10,2,0,2,10,0,0,1,0,10,2,11,0,0,0,0,0,0,0,0,0,0,0,0,0,0,0,0,0],"split_type":[0,0,0,0,0,0,0,0,0,0,0,0,0,0,0,0,0,0,0,0,0,0,0,0,0,0,0,0,0,0,0,0,0,0,0,0,0,0,0,0,0],"sum_hessian":[5.08E2,2.21E2,2.87E2,1.47E2,7.4E1,1.91E2,9.6E1,1.2E1,1.35E2,4E1,3.4E1,9.8E1,9.3E1,6.9E1,2.7E1,3E1,1.05E2,1.2E1,2.8E1,2.4E1,1E1,5.9E1,3.9E1,7.2E1,2.1E1,4.3E1,2.6E1,1E1,2E1,5.1E1,5.4E1,1.7E1,7E0,4E0,6E0,5.1E1,8E0,1.7E1,2.2E1,6.2E1,1E1],"tree_param":{"num_deleted":"0","num_feature":"12","num_nodes":"41","size_leaf_vector":"1"}},{"base_weights":[6.7859124E-5,4.850003E-2,-4.3665923E-2,6.65107E-2,1.5056136E-2,-3.2691125E-2,-8.655325E-2,8.1879504E-2,5.182189E-2,2.660999E-2,-2.5397677E-3,-1.8133443E-2,-4.6681777E-2,-5.9339968E-3,-3.8277232E-3,6.546981E-3,7.4903615E-2,3.15286E-3,3.8774576E-2,3.3180583E-2,1.7561778E-2,5.4748654E-3,-1.4952779E-2,-6.31883E-3,-3.1989127E-2,-3.639207E-2,-5.478505E-2,4.042755E-3,2.9871992E-3,2.0063266E-3,8.118674E-4,1.7362846E-3,7.421106E-4,1.0805965E-3,5.405258E-4,5.150342E-4,6.707769E-5,-2.784419E-4,-9.0747356E-4,-5.4847416E-5,-1.1512547E-3,-1.8364955E-3,-9.957824E-4,-1.3511515E-3,-2.1859629E-3,-1.9192295E-3,-2.8674363E-3],"categories":[],"categories_nodes":[],"categories_segments":[],"categories_sizes":[],"default_left":[0,0,0,0,0,0,0,0,0,0,0,0,0,0,0,0,0,0,0,0,0,0,0,0,0,0,0,0,0,0,0,0,0,0,0,0,0,0,0,0,0,0,0,0,0,0,0],"id":26,"left_children":[1,3,5,7,9,11,13,15,17,19,21,23,25,-1,-1,-1,27,-1,29,31,33,35,37,39,41,43,45,-1,-1,-1,-1,-1,-1,-1,-1,-1,-1,-1,-1,-1,-1,-1,-1,-1,-1,-1,-1],"loss_changes":[1.0802419E0,1.4476657E-1,1.2331271E-1,3.1199515E-2,1.7551428E-2,4.2942867E-2,8.260816E-3,1.5860021E-2,9.722009E-3,2.5087968E-3,3.5638649E-3,1.7313715E-2,7.094696E-3,0E0,0E0,0E0,1.3045073E-3,0E0,5.976893E-4,3.0630827E-4,4.2261137E-4,4.250065E-4,3.1889486E-4,5.121793E-3,2.0731539E-3,2.3196563E-3,2.7938187E-4,0E0,0E0,0E0,0E0,0E0,0E0,0E0,0E0,0E0,0E0,0E0,0E0,0E0,0E0,0E0,0E0,0E0,0E0,0E0,0E0],"parents":[2147483647,0,0,1,1,2,2,3,3,4,4,5,5,6,6,7,7,8,8,9,9,10,10,11,11,12,12,16,16,18,18,19,19,20,20,21,21,22,22,23,23,24,24,25,25,26,26],"right_children":[2,4,6,8,10,12,14,16,18,20,22,24,26,-1,-1,-1,28,-1,30,32,34,36,38,40,42,44,46,-1,-1,-1,-1,-1,-1,-1,-1,-1,-1,-1,-1,-1,-1,-1,-1,-1,-1,-1,-1],"split_conditions":[4.4444445E-1,2.8104576E-1,5.0317633E-1,1.1111111E-1,3.1902584E-1,4.1075087E-1,5.4029277E4,2.1839198E-2,1.6471292E-1,4.7627535E-1,4.176308E-1,6.424051E-1,6.8037975E-1,-5.9339968E-3,-3.8277232E-3,6.546981E-3,2.6102594E-1,3.15286E-3,2.909484E-1,2.8456405E-1,1.1453943E0,4.5296648E-1,4.5848393E-1,1.205615E0,5.942457E4,4.940901E-1,4.6905917E-1,4.042755E-3,2.9871992E-3,2.0063266E-3,8.118674E-4,1.7362846E-3,7.421106E-4,1.0805965E-3,5.405258E-4,5.150342E-4,6.707769E-5,-2.784419E-4,-9.0747356E-4,-5.4847416E-5,-1.1512547E-3,-1.8364955E-3,-9.957824E-4,-1.3511515E-3,-2.1859629E-3,-1.9192295E-3,-2.8674363E-3],"split_indices":[0,0,9,0,2,2,11,2,2,9,2,0,0,0,0,0,4,0,2,2,10,9,2,10,11,9,9,0,0,0,0,0,0,0,0,0,0,0,0,0,0,0,0,0,0,0,0],"split_type":[0,0,0,0,0,0,0,0,0,0,0,0,0,0,0,0,0,0,0,0,0,0,0,0,0,0,0,0,0,0,0,0,0,0,0,0,0,0,0,0,0,0,0,0,0,0,0],"sum_hessian":[5.08E2,2.41E2,2.67E2,1.56E2,8.5E1,2.14E2,5.3E1,7.4E1,8.2E1,5.1E1,3.4E1,1.06E2,1.08E2,1E1,4.3E1,7E0,6.7E1,4.2E1,4E1,2.8E1,2.3E1,2.1E1,1.3E1,5.8E1,4.8E1,5E1,5.8E1,4.5E1,2.2E1,3.7E1,3E0,2.5E1,3E0,1.3E1,1E1,9E0,1.2E1,4E0,9E0,4.5E1,1.3E1,3.3E1,1.5E1,2.4E1,2.6E1,1E1,4.8E1],"tree_param":{"num_deleted":"0","num_feature":"12","num_nodes":"47","size_leaf_vector":"1"}},{"base_weights":[6.627708E-5,4.6170264E-2,-4.1565184E-2,6.4749844E-2,1.673924E-2,-3.1112483E-2,-8.24127E-2,6.0864706E-3,6.0624372E-2,2.7649079E-2,-1.9088057E-3,-1.7264513E-2,-4.4420924E-2,-5.66427E-3,-3.6410752E-3,6.812609E-2,4.661903E-2,3.5284482E-2,1.827039E-2,5.7104877E-3,-1.4289873E-2,-8.13626E-3,-3.3625387E-2,-3.5702147E-2,-5.3636357E-2,3.7452038E-3,2.776426E-3,2.8220627E-3,1.7312997E-3,2.1125984E-3,1.3325646E-3,1.1227314E-3,5.6966406E-4,5.4963E-4,7.6482975E-5,-3.6173037E-4,-9.3384983E-4,-5.79561E-4,6.876308E-4,-1.4399772E-3,-2.142625E-3,-1.9382638E-3,-9.40583E-4,-2.1099066E-3,-2.929833E-3],"categories":[],"categories_nodes":[],"categories_segments":[],"categories_sizes":[],"default_left":[0,0,0,0,0,0,0,0,0,0,0,0,0,0,0,0,0,0,0,0,0,0,0,0,0,0,0,0,0,0,0,0,0,0,0,0,0,0,0,0,0,0,0,0,0],"id":27,"left_children":[1,3,5,7,9,11,13,-1,15,17,19,21,23,-1,-1,25,27,29,31,33,35,37,39,41,43,-1,-1,-1,-1,-1,-1,-1,-1,-1,-1,-1,-1,-1,-1,-1,-1,-1,-1,-1,-1],"loss_changes":[9.788816E-1,1.3124561E-1,1.1186305E-1,2.7410269E-2,1.9380257E-2,3.885649E-2,7.7400506E-3,0E0,1.1533022E-2,3.6519468E-3,3.4776616E-3,1.5706457E-2,6.842926E-3,0E0,0E0,3.4400523E-3,4.1711703E-3,7.987805E-4,5.7865586E-4,4.9110776E-4,2.9821158E-4,5.4531707E-3,4.5795366E-4,2.3232847E-3,4.20928E-4,0E0,0E0,0E0,0E0,0E0,0E0,0E0,0E0,0E0,0E0,0E0,0E0,0E0,0E0,0E0,0E0,0E0,0E0,0E0,0E0],"parents":[2147483647,0,0,1,1,2,2,3,3,4,4,5,5,6,6,8,8,9,9,10,10,11,11,12,12,15,15,16,16,17,17,18,18,19,19,20,20,21,21,22,22,23,23,24,24],"right_children":[2,4,6,8,10,12,14,-1,16,18,20,22,24,-1,-1,26,28,30,32,34,36,38,40,42,44,-1,-1,-1,-1,-1,-1,-1,-1,-1,-1,-1,-1,-1,-1,-1,-1,-1,-1,-1,-1],"split_conditions":[4.4444445E-1,2.5E-1,6.311274E-1,1.113996E0,3.1902584E-1,4.1075087E-1,5.4029277E4,6.0864706E-3,1.5189873E-1,4.7497377E-1,4.176308E-1,7.238562E-1,7.107843E-1,-5.66427E-3,-3.6410752E-3,1.1544714E0,1.7165281E-1,1.7677177E-1,1.1453943E0,3.3333334E-1,4.8831898E-1,5.9687445E4,9.183006E-1,5.903969E4,4.7085875E-1,3.7452038E-3,2.776426E-3,2.8220627E-3,1.7312997E-3,2.1125984E-3,1.3325646E-3,1.1227314E-3,5.6966406E-4,5.4963E-4,7.6482975E-5,-3.6173037E-4,-9.3384983E-4,-5.79561E-4,6.876308E-4,-1.4399772E-3,-2.142625E-3,-1.9382638E-3,-9.40583E-4,-2.1099066E-3,-2.929833E-3],"split_indices":[0,0,2,10,2,2,11,0,0,9,2,0,0,0,0,10,2,2,10,0,2,11,0,11,9,0,0,0,0,0,0,0,0,0,0,0,0,0,0,0,0,0,0,0,0],"split_type":[0,0,0,0,0,0,0,0,0,0,0,0,0,0,0,0,0,0,0,0,0,0,0,0,0,0,0,0,0,0,0,0,0,0,0,0,0,0,0,0,0,0,0,0,0],"sum_hessian":[5.08E2,2.41E2,2.67E2,1.47E2,9.4E1,2.14E2,5.3E1,8E0,1.39E2,5.9E1,3.5E1,1.06E2,1.08E2,1E1,4.3E1,8.8E1,5.1E1,3.1E1,2.8E1,2.2E1,1.3E1,6.9E1,3.7E1,5.8E1,5E1,5.4E1,3.4E1,2.6E1,2.5E1,1.5E1,1.6E1,1.6E1,1.2E1,9E0,1.3E1,6E0,7E0,6E1,9E0,2.7E1,1E1,4.8E1,1E1,1.8E1,3.2E1],"tree_param":{"num_deleted":"0","num_feature":"12","num_nodes":"45","size_leaf_vector":"1"}},{"base_weights":[6.479622E-5,4.395114E-2,-3.956416E-2,6.0569797E-2,1.4180193E-2,-3.0279197E-2,-8.1489414E-2,5.815961E-3,5.6744527E-2,2.46221E-2,-2.335327E-3,-1.6433746E-2,-4.289819E-2,-5.4068044E-3,-3.5815723E-3,6.479309E-2,4.3641713E-2,3.0576006E-2,1.5905717E-2,4.162083E-3,-1.5135537E-2,-5.6468793E-3,-2.908663E-2,-3.429556E-2,-5.134925E-2,3.5613484E-3,2.6415733E-3,2.766794E-3,1.7020915E-3,1.8105967E-3,1.1902269E-3,8.861706E-4,2.7269006E-4,4.200069E-4,-3.8799146E-5,-3.874767E-4,-8.929923E-4,-3.6211895E-5,-1.0708963E-3,-1.0356903E-3,-1.7570878E-3,-1.2570516E-3,-2.027832E-3,-2.0099645E-3,-2.7786468E-3],"categories":[],"categories_nodes":[],"categories_segments":[],"categories_sizes":[],"default_left":[0,0,0,0,0,0,0,0,0,0,0,0,0,0,0,0,0,0,0,0,0,0,0,0,0,0,0,0,0,0,0,0,0,0,0,0,0,0,0,0,0,0,0,0,0],"id":28,"left_children":[1,3,5,7,9,11,13,-1,15,17,19,21,23,-1,-1,25,27,29,31,33,35,37,39,41,43,-1,-1,-1,-1,-1,-1,-1,-1,-1,-1,-1,-1,-1,-1,-1,-1,-1,-1,-1,-1],"loss_changes":[8.869763E-1,1.1887139E-1,1.0185814E-1,2.645421E-2,1.5233409E-2,3.790717E-2,4.862815E-3,0E0,1.26748085E-2,2.31608E-3,2.973883E-3,1.4439644E-2,6.599605E-3,0E0,0E0,3.086388E-3,4.7397614E-3,3.2105856E-4,3.5930146E-4,5.0878536E-4,1.030555E-4,4.564965E-3,1.7563067E-3,2.4194047E-3,4.0325522E-4,0E0,0E0,0E0,0E0,0E0,0E0,0E0,0E0,0E0,0E0,0E0,0E0,0E0,0E0,0E0,0E0,0E0,0E0,0E0,0E0],"parents":[2147483647,0,0,1,1,2,2,3,3,4,4,5,5,6,6,8,8,9,9,10,10,11,11,12,12,15,15,16,16,17,17,18,18,19,19,20,20,21,21,22,22,23,23,24,24],"right_children":[2,4,6,8,10,12,14,-1,16,18,20,22,24,-1,-1,26,28,30,32,34,36,38,40,42,44,-1,-1,-1,-1,-1,-1,-1,-1,-1,-1,-1,-1,-1,-1,-1,-1,-1,-1,-1,-1],"split_conditions":[4.4444445E-1,2.7450982E-1,5.048599E-1,1.113996E0,3.1902584E-1,4.1075087E-1,5.4029277E4,5.815961E-3,1.5189873E-1,4.7627535E-1,4.4467285E-1,6.424051E-1,7.107843E-1,-5.4068044E-3,-3.5815723E-3,1.1544714E0,1.5117373E-1,2.045071E-1,1.1674917E0,4.806502E-1,5.51677E-1,1.205615E0,8.153595E-1,4.940901E-1,4.7085875E-1,3.5613484E-3,2.6415733E-3,2.766794E-3,1.7020915E-3,1.8105967E-3,1.1902269E-3,8.861706E-4,2.7269006E-4,4.200069E-4,-3.8799146E-5,-3.874767E-4,-8.929923E-4,-3.6211895E-5,-1.0708963E-3,-1.0356903E-3,-1.7570878E-3,-1.2570516E-3,-2.027832E-3,-2.0099645E-3,-2.7786468E-3],"split_indices":[0,0,9,10,2,2,11,0,0,9,2,0,0,0,0,10,2,2,10,9,1,10,0,9,9,0,0,0,0,0,0,0,0,0,0,0,0,0,0,0,0,0,0,0,0],"split_type":[0,0,0,0,0,0,0,0,0,0,0,0,0,0,0,0,0,0,0,0,0,0,0,0,0,0,0,0,0,0,0,0,0,0,0,0,0,0,0,0,0,0,0,0,0],"sum_hessian":[5.08E2,2.41E2,2.67E2,1.54E2,8.7E1,2.2E2,4.7E1,8E0,1.46E2,5.3E1,3.4E1,1.06E2,1.14E2,1E1,3.7E1,8.8E1,5.8E1,3E1,2.3E1,2.3E1,1.1E1,5.8E1,4.8E1,5.9E1,5.5E1,5.4E1,3.4E1,2.4E1,3.4E1,1.4E1,1.6E1,1.9E1,4E0,1.2E1,1.1E1,4E0,7E0,4.5E1,1.3E1,2.2E1,2.6E1,2.6E1,3.3E1,1.8E1,3.7E1],"tree_param":{"num_deleted":"0","num_feature":"12","num_nodes":"45","size_leaf_vector":"1"}},{"base_weights":[5.9175585E-5,4.183518E-2,-3.7664153E-2,5.8670074E-2,1.5167818E-2,-2.8819395E-2,-7.760223E-2,5.5574733E-3,5.4877326E-2,2.5090156E-2,-1.7907388E-3,-1.5648486E-2,-4.0823463E-2,-5.1610386E-3,-3.4072087E-3,6.434693E-2,4.556191E-2,3.2046497E-2,1.6549015E-2,5.174181E-3,-1.3105197E-2,-5.1806364E-3,-2.747822E-2,-2.5948431E-2,-4.5092527E-2,3.4857267E-3,2.552371E-3,2.7796861E-3,1.7013781E-3,1.9204122E-3,1.2086942E-3,1.0218628E-3,5.0956977E-4,5.0187885E-4,6.653709E-5,-2.443123E-4,-7.952076E-4,-1.6163456E-5,-1.0211779E-3,-7.826375E-4,-1.5605035E-3,-8.642805E-4,-1.6688284E-3,-2.3374227E-3,-1.2681459E-3],"categories":[],"categories_nodes":[],"categories_segments":[],"categories_sizes":[],"default_left":[0,0,0,0,0,0,0,0,0,0,0,0,0,0,0,0,0,0,0,0,0,0,0,0,0,0,0,0,0,0,0,0,0,0,0,0,0,0,0,0,0,0,0,0,0],"id":29,"left_children":[1,3,5,7,9,11,13,-1,15,17,19,21,23,-1,-1,25,27,29,31,33,35,37,39,41,43,-1,-1,-1,-1,-1,-1,-1,-1,-1,-1,-1,-1,-1,-1,-1,-1,-1,-1,-1,-1],"loss_changes":[8.0372405E-1,1.0775414E-1,9.243256E-2,2.3358464E-2,1.6030436E-2,3.430228E-2,4.596591E-3,0E0,9.4181E-3,3.034573E-3,2.904763E-3,1.3107657E-2,6.132692E-3,0E0,0E0,1.2241602E-3,6.6708624E-3,6.741956E-4,5.085943E-4,4.1656249E-4,2.443511E-4,4.287744E-3,1.7180182E-3,1.224827E-3,1.6893595E-3,0E0,0E0,0E0,0E0,0E0,0E0,0E0,0E0,0E0,0E0,0E0,0E0,0E0,0E0,0E0,0E0,0E0,0E0,0E0,0E0],"parents":[2147483647,0,0,1,1,2,2,3,3,4,4,5,5,6,6,8,8,9,9,10,10,11,11,12,12,15,15,16,16,17,17,18,18,19,19,20,20,21,21,22,22,23,23,24,24],"right_children":[2,4,6,8,10,12,14,-1,16,18,20,22,24,-1,-1,26,28,30,32,34,36,38,40,42,44,-1,-1,-1,-1,-1,-1,-1,-1,-1,-1,-1,-1,-1,-1,-1,-1,-1,-1,-1,-1],"split_conditions":[4.4444445E-1,2.5E-1,5.048599E-1,1.113996E0,3.1902584E-1,4.1075087E-1,5.4029277E4,5.5574733E-3,1.1111111E-1,4.7497377E-1,4.176308E-1,6.36076E-1,6.094771E-1,-5.1610386E-3,-3.4072087E-3,2.6102594E-1,1.6471292E-1,1.7677177E-1,1.1453943E0,3.3333334E-1,4.5848393E-1,1.205615E0,2.4866873E-1,5.29832E-1,5.8985207E4,3.4857267E-3,2.552371E-3,2.7796861E-3,1.7013781E-3,1.9204122E-3,1.2086942E-3,1.0218628E-3,5.0956977E-4,5.0187885E-4,6.653709E-5,-2.443123E-4,-7.952076E-4,-1.6163456E-5,-1.0211779E-3,-7.826375E-4,-1.5605035E-3,-8.642805E-4,-1.6688284E-3,-2.3374227E-3,-1.2681459E-3],"split_indices":[0,0,9,10,2,2,11,0,0,9,2,0,0,0,0,4,2,2,10,0,2,10,2,2,11,0,0,0,0,0,0,0,0,0,0,0,0,0,0,0,0,0,0,0,0],"split_type":[0,0,0,0,0,0,0,0,0,0,0,0,0,0,0,0,0,0,0,0,0,0,0,0,0,0,0,0,0,0,0,0,0,0,0,0,0,0,0,0,0,0,0,0,0],"sum_hessian":[5.08E2,2.41E2,2.67E2,1.47E2,9.4E1,2.2E2,4.7E1,8E0,1.39E2,5.9E1,3.5E1,1.06E2,1.14E2,1E1,3.7E1,6.6E1,7.3E1,3.1E1,2.8E1,2.2E1,1.3E1,5.7E1,4.9E1,2.7E1,8.7E1,4.4E1,2.2E1,3.7E1,3.6E1,1.5E1,1.6E1,1.6E1,1.2E1,9E0,1.3E1,4E0,9E0,4.4E1,1.3E1,1.3E1,3.6E1,1.4E1,1.3E1,7.9E1,8E0],"tree_param":{"num_deleted":"0","num_feature":"12","num_nodes":"45","size_leaf_vector":"1"}},{"base_weights":[6.0505154E-5,3.982717E-2,-3.5848428E-2,5.584521E-2,1.4453523E-2,-2.7421491E-2,-7.3900595E-2,5.3104768E-3,5.2208606E-2,2.391331E-2,-1.7142759E-3,-1.4897659E-2,-3.8835652E-2,-4.7929105E-3,-3.1959333E-3,5.8690853E-2,4.0109977E-2,3.0541949E-2,1.5774352E-2,4.9401987E-3,-1.2524179E-2,-4.9394597E-3,-2.6151218E-2,-3.0968197E-2,-4.6571575E-2,3.2691204E-3,2.4429571E-3,2.5842523E-3,1.5939666E-3,1.6433904E-3,7.4926316E-4,1.0042021E-3,5.206521E-4,4.6106635E-4,4.6884554E-5,-3.1626734E-4,-8.1913173E-4,-3.9318792E-4,8.744768E-4,-9.633475E-4,-1.6403192E-3,-1.1278649E-3,-1.8368306E-3,-1.8040332E-3,-2.5295732E-3],"categories":[],"categories_nodes":[],"categories_segments":[],"categories_sizes":[],"default_left":[0,0,0,0,0,0,0,0,0,0,0,0,0,0,0,0,0,0,0,0,0,0,0,0,0,0,0,0,0,0,0,0,0,0,0,0,0,0,0,0,0,0,0,0,0],"id":30,"left_children":[1,3,5,7,9,11,13,-1,15,17,19,21,23,-1,-1,25,27,29,31,33,35,37,39,41,43,-1,-1,-1,-1,-1,-1,-1,-1,-1,-1,-1,-1,-1,-1,-1,-1,-1,-1,-1,-1],"loss_changes":[7.282688E-1,9.755033E-2,8.391127E-2,2.156189E-2,1.4570665E-2,3.1013161E-2,4.393488E-3,0E0,8.625597E-3,2.7552359E-3,2.651504E-3,1.1861807E-2,5.5568963E-3,0E0,0E0,2.6607215E-3,3.3063665E-3,6.6531077E-4,4.609255E-4,3.8546388E-4,2.3122504E-4,3.9416994E-3,1.658719E-3,2.082374E-3,5.362779E-4,0E0,0E0,0E0,0E0,0E0,0E0,0E0,0E0,0E0,0E0,0E0,0E0,0E0,0E0,0E0,0E0,0E0,0E0,0E0,0E0],"parents":[2147483647,0,0,1,1,2,2,3,3,4,4,5,5,6,6,8,8,9,9,10,10,11,11,12,12,15,15,16,16,17,17,18,18,19,19,20,20,21,21,22,22,23,23,24,24],"right_children":[2,4,6,8,10,12,14,-1,16,18,20,22,24,-1,-1,26,28,30,32,34,36,38,40,42,44,-1,-1,-1,-1,-1,-1,-1,-1,-1,-1,-1,-1,-1,-1,-1,-1,-1,-1,-1,-1],"split_conditions":[4.4444445E-1,2.5E-1,5.048599E-1,1.113996E0,3.1902584E-1,4.1075087E-1,5.4073387E4,5.3104768E-3,1.5189873E-1,4.7497377E-1,4.176308E-1,6.36076E-1,7.107843E-1,-4.7929105E-3,-3.1959333E-3,1.1542437E0,1.2994713E-1,2.811829E-1,1.1444749E0,4.5296648E-1,4.8831898E-1,5.9705094E4,8.227848E-1,4.940901E-1,4.7085875E-1,3.2691204E-3,2.4429571E-3,2.5842523E-3,1.5939666E-3,1.6433904E-3,7.4926316E-4,1.0042021E-3,5.206521E-4,4.6106635E-4,4.6884554E-5,-3.1626734E-4,-8.1913173E-4,-3.9318792E-4,8.744768E-4,-9.633475E-4,-1.6403192E-3,-1.1278649E-3,-1.8368306E-3,-1.8040332E-3,-2.5295732E-3],"split_indices":[0,0,9,10,2,2,11,0,0,9,2,0,0,0,0,10,2,2,10,9,2,11,0,9,9,0,0,0,0,0,0,0,0,0,0,0,0,0,0,0,0,0,0,0,0],"split_type":[0,0,0,0,0,0,0,0,0,0,0,0,0,0,0,0,0,0,0,0,0,0,0,0,0,0,0,0,0,0,0,0,0,0,0,0,0,0,0,0,0,0,0,0,0],"sum_hessian":[5.08E2,2.41E2,2.67E2,1.47E2,9.4E1,2.2E2,4.7E1,8E0,1.39E2,5.9E1,3.5E1,1.06E2,1.14E2,1.2E1,3.5E1,8.8E1,5.1E1,3.1E1,2.8E1,2.2E1,1.3E1,5.7E1,4.9E1,5.9E1,5.5E1,4.9E1,3.9E1,1.9E1,3.2E1,2.6E1,5E0,1.4E1,1.4E1,1E1,1.2E1,6E0,7E0,5.1E1,6E0,2.6E1,2.3E1,2.6E1,3.3E1,1.8E1,3.7E1],"tree_param":{"num_deleted":"0","num_feature":"12","num_nodes":"45","size_leaf_vector":"1"}},{"base_weights":[5.9595746E-5,3.7912223E-2,-3.4120984E-2,5.2248497E-2,1.2230014E-2,-2.6093062E-2,-7.037203E-2,9.2641726E-2,4.8211012E-2,2.21728E-2,-8.307359E-4,-1.4172635E-2,-3.6957346E-2,-3.1023917E-3,-4.7899606E-3,4.80541E-3,1.2761027E-3,5.1271927E-2,2.5535991E-2,2.6742784E-2,1.4588402E-2,5.204178E-3,-1.1979095E-2,-6.4564026E-3,-2.7461031E-2,-2.3350103E-2,-4.0866952E-2,2.7542002E-3,1.5985615E-3,1.3484502E-3,4.4517915E-4,1.3871117E-3,4.250169E-4,8.5340237E-4,4.6928792E-4,4.0000855E-4,-3.4713746E-6,-3.0271325E-4,-7.832967E-4,-4.7769496E-4,6.3871086E-4,-1.1562216E-3,-1.8198712E-3,-7.6895236E-4,-1.5111327E-3,-2.1192112E-3,-1.1419648E-3],"categories":[],"categories_nodes":[],"categories_segments":[],"categories_sizes":[],"default_left":[0,0,0,0,0,0,0,0,0,0,0,0,0,0,0,0,0,0,0,0,0,0,0,0,0,0,0,0,0,0,0,0,0,0,0,0,0,0,0,0,0,0,0,0,0,0,0],"id":31,"left_children":[1,3,5,7,9,11,13,15,17,19,21,23,25,-1,-1,-1,-1,27,29,31,33,35,37,39,41,43,45,-1,-1,-1,-1,-1,-1,-1,-1,-1,-1,-1,-1,-1,-1,-1,-1,-1,-1,-1,-1],"loss_changes":[6.598505E-1,8.846229E-2,7.615733E-2,2.0812124E-2,1.1446121E-2,2.8097242E-2,4.215583E-3,5.718097E-4,8.615851E-3,1.3428945E-3,2.6862372E-3,1.079409E-2,5.163625E-3,0E0,0E0,0E0,0E0,7.4358582E-3,2.1273363E-4,3.11153E-4,1.1071842E-4,3.8392452E-4,2.1096901E-4,4.2321514E-3,6.6971965E-4,1.0690857E-3,1.43902E-3,0E0,0E0,0E0,0E0,0E0,0E0,0E0,0E0,0E0,0E0,0E0,0E0,0E0,0E0,0E0,0E0,0E0,0E0,0E0,0E0],"parents":[2147483647,0,0,1,1,2,2,3,3,4,4,5,5,6,6,7,7,8,8,9,9,10,10,11,11,12,12,17,17,18,18,19,19,20,20,21,21,22,22,23,23,24,24,25,25,26,26],"right_children":[2,4,6,8,10,12,14,16,18,20,22,24,26,-1,-1,-1,-1,28,30,32,34,36,38,40,42,44,46,-1,-1,-1,-1,-1,-1,-1,-1,-1,-1,-1,-1,-1,-1,-1,-1,-1,-1,-1,-1],"split_conditions":[4.4444445E-1,2.7450982E-1,5.048599E-1,2.217926E-2,2.9524484E-1,4.1075087E-1,8.9611006E-1,7.189543E-2,1.188445E0,4.7627535E-1,4.176308E-1,7.151899E-1,6.094771E-1,-3.1023917E-3,-4.7899606E-3,4.80541E-3,1.2761027E-3,4.683734E-1,1.1966066E0,2.8456405E-1,1.1453943E0,4.806502E-1,4.8831898E-1,5.9687445E4,9.183006E-1,5.29832E-1,5.8985207E4,2.7542002E-3,1.5985615E-3,1.3484502E-3,4.4517915E-4,1.3871117E-3,4.250169E-4,8.5340237E-4,4.6928792E-4,4.0000855E-4,-3.4713746E-6,-3.0271325E-4,-7.832967E-4,-4.7769496E-4,6.3871086E-4,-1.1562216E-3,-1.8198712E-3,-7.6895236E-4,-1.5111327E-3,-2.1192112E-3,-1.1419648E-3],"split_indices":[0,0,9,2,2,2,2,0,10,9,2,0,0,0,0,0,0,9,10,2,10,9,2,11,0,2,11,0,0,0,0,0,0,0,0,0,0,0,0,0,0,0,0,0,0,0,0],"split_type":[0,0,0,0,0,0,0,0,0,0,0,0,0,0,0,0,0,0,0,0,0,0,0,0,0,0,0,0,0,0,0,0,0,0,0,0,0,0,0,0,0,0,0,0,0,0,0],"sum_hessian":[5.08E2,2.41E2,2.67E2,1.54E2,8.7E1,2.2E2,4.7E1,1.2E1,1.42E2,4.9E1,3.8E1,1.06E2,1.14E2,3.8E1,9E0,1.1E1,1E0,1.24E2,1.8E1,2.9E1,2E1,2.5E1,1.3E1,6.8E1,3.8E1,2.7E1,8.7E1,1.02E2,2.2E1,1.6E1,2E0,2.7E1,2E0,1.2E1,8E0,1.6E1,9E0,6E0,7E0,5.9E1,9E0,2.8E1,1E1,1.4E1,1.3E1,7.9E1,8E0],"tree_param":{"num_deleted":"0","num_feature":"12","num_nodes":"47","size_leaf_vector":"1"}},{"base_weights":[5.350202E-5,3.6077227E-2,-3.2475583E-2,4.9471684E-2,1.1205054E-2,-2.4826247E-2,-6.701783E-2,4.8608775E-3,4.625568E-2,1.9874629E-2,-1.995601E-3,-1.3280355E-2,-3.4975752E-2,-3.9840983E-3,-2.661867E-3,5.312369E-2,3.5476856E-2,2.4166292E-2,1.1799651E-2,3.4433901E-3,-1.2707283E-2,-3.6692342E-3,-2.3779204E-2,-2.785126E-2,-4.223902E-2,3.010817E-3,2.2425258E-3,2.2912645E-3,1.40037E-3,1.4368236E-3,9.3806686E-4,6.7398325E-4,2.031839E-4,3.1280852E-4,-9.6985365E-5,-3.26432E-4,-7.4902625E-4,1.832357E-3,-2.5342856E-4,-8.7511766E-4,-1.4924932E-3,-1.0757648E-3,-1.7159621E-3,-1.6181984E-3,-2.30325E-3],"categories":[],"categories_nodes":[],"categories_segments":[],"categories_sizes":[],"default_left":[0,0,0,0,0,0,0,0,0,0,0,0,0,0,0,0,0,0,0,0,0,0,0,0,0,0,0,0,0,0,0,0,0,0,0,0,0,0,0,0,0,0,0,0,0],"id":32,"left_children":[1,3,5,7,9,11,13,-1,15,17,19,21,23,-1,-1,25,27,29,31,33,35,37,39,41,43,-1,-1,-1,-1,-1,-1,-1,-1,-1,-1,-1,-1,-1,-1,-1,-1,-1,-1,-1,-1],"loss_changes":[5.976274E-1,8.006781E-2,6.91486E-2,1.9610643E-2,9.881849E-3,2.5433436E-2,4.134804E-3,0E0,9.145647E-3,1.5169121E-3,2.0828822E-3,1.0507846E-2,4.8779994E-3,0E0,0E0,2.5216937E-3,3.4316704E-3,2.7601793E-4,2.0515383E-4,3.7553048E-4,7.074408E-5,3.3450546E-3,1.3827886E-3,1.8024258E-3,6.249249E-4,0E0,0E0,0E0,0E0,0E0,0E0,0E0,0E0,0E0,0E0,0E0,0E0,0E0,0E0,0E0,0E0,0E0,0E0,0E0,0E0],"parents":[2147483647,0,0,1,1,2,2,3,3,4,4,5,5,6,6,8,8,9,9,10,10,11,11,12,12,15,15,16,16,17,17,18,18,19,19,20,20,21,21,22,22,23,23,24,24],"right_children":[2,4,6,8,10,12,14,-1,16,18,20,22,24,-1,-1,26,28,30,32,34,36,38,40,42,44,-1,-1,-1,-1,-1,-1,-1,-1,-1,-1,-1,-1,-1,-1,-1,-1,-1,-1,-1,-1],"split_conditions":[4.4444445E-1,2.8104576E-1,5.048599E-1,1.113996E0,3.1902584E-1,4.082612E-1,5.421827E4,4.8608775E-3,1.5189873E-1,4.7693744E-1,4.4467285E-1,6.36076E-1,7.107843E-1,-3.9840983E-3,-2.661867E-3,1.1324084E0,1.2994713E-1,2.045071E-1,1.1674917E0,4.8233116E-1,5.51677E-1,1.3002923E-1,8.227848E-1,5.29832E-1,4.7085875E-1,3.010817E-3,2.2425258E-3,2.2912645E-3,1.40037E-3,1.4368236E-3,9.3806686E-4,6.7398325E-4,2.031839E-4,3.1280852E-4,-9.6985365E-5,-3.26432E-4,-7.4902625E-4,1.832357E-3,-2.5342856E-4,-8.7511766E-4,-1.4924932E-3,-1.0757648E-3,-1.7159621E-3,-1.6181984E-3,-2.30325E-3],"split_indices":[0,0,9,10,2,2,11,0,0,9,2,0,0,0,0,10,2,2,10,9,1,2,0,2,9,0,0,0,0,0,0,0,0,0,0,0,0,0,0,0,0,0,0,0,0],"split_type":[0,0,0,0,0,0,0,0,0,0,0,0,0,0,0,0,0,0,0,0,0,0,0,0,0,0,0,0,0,0,0,0,0,0,0,0,0,0,0,0,0,0,0,0,0],"sum_hessian":[5.08E2,2.41E2,2.67E2,1.56E2,8.5E1,2.2E2,4.7E1,8E0,1.48E2,5.1E1,3.4E1,1.04E2,1.16E2,2.2E1,2.5E1,8.8E1,6E1,3.2E1,1.9E1,2.3E1,1.1E1,5.5E1,4.9E1,6.1E1,5.5E1,4.4E1,4.4E1,2.3E1,3.7E1,1.5E1,1.7E1,1.5E1,4E0,1.5E1,8E0,4E0,7E0,1E0,5.4E1,2.6E1,2.3E1,3.3E1,2.8E1,1.8E1,3.7E1],"tree_param":{"num_deleted":"0","num_feature":"12","num_nodes":"45","size_leaf_vector":"1"}},{"base_weights":[5.484447E-5,4.01218E-2,-2.643912E-2,5.4432575E-2,2.5699373E-2,-7.067879E-3,-4.1010182E-2,4.9707326E-3,5.0545134E-2,3.497096E-2,1.2972196E-2,5.8344677E-3,-1.8763341E-2,-3.329003E-2,-6.796731E-2,2.8054884E-3,4.0305715E-2,4.3893594E-2,2.9983131E-2,1.695828E-2,5.972783E-4,9.219427E-3,-5.8376947E-3,-1.47597855E-2,-3.0376792E-2,-2.3645049E-2,-4.0406104E-2,-2.9374694E-3,-4.3951287E-3,1.2431585E-3,2.15401E-3,6.251723E-4,2.2471428E-3,1.5151757E-3,4.2919518E-4,9.3331543E-4,5.069859E-4,2.563576E-4,-1.685398E-4,1.786548E-3,3.9745864E-4,-1.4264746E-4,-5.6182983E-4,-6.101497E-4,-1.1822575E-3,-3.8956702E-4,-1.5650712E-3,-7.827938E-4,-1.3875165E-3,-2.089577E-3,-1.1529804E-3],"categories":[],"categories_nodes":[],"categories_segments":[],"categories_sizes":[],"default_left":[0,0,0,0,0,0,0,0,0,0,0,0,0,0,0,0,0,0,0,0,0,0,0,0,0,0,0,0,0,0,0,0,0,0,0,0,0,0,0,0,0,0,0,0,0,0,0,0,0,0,0],"id":33,"left_children":[1,3,5,7,9,11,13,-1,15,17,19,21,23,25,27,-1,29,31,33,35,37,39,41,43,45,47,49,-1,-1,-1,-1,-1,-1,-1,-1,-1,-1,-1,-1,-1,-1,-1,-1,-1,-1,-1,-1,-1,-1,-1,-1],"loss_changes":[5.413808E-1,4.049954E-2,8.636387E-2,1.2636483E-2,1.1700466E-2,2.0179028E-2,3.4157157E-2,0E0,3.1514019E-3,1.3097003E-3,2.2096066E-3,2.582447E-3,2.8063022E-3,8.516148E-3,1.8187165E-3,0E0,5.1416084E-4,6.3851476E-5,2.0969659E-5,2.0670332E-4,2.3298107E-4,1.3997885E-3,2.0965782E-4,9.3823206E-4,1.1113472E-4,1.5662089E-3,9.108335E-4,0E0,0E0,0E0,0E0,0E0,0E0,0E0,0E0,0E0,0E0,0E0,0E0,0E0,0E0,0E0,0E0,0E0,0E0,0E0,0E0,0E0,0E0,0E0,0E0],"parents":[2147483647,0,0,1,1,2,2,3,3,4,4,5,5,6,6,8,8,9,9,10,10,11,11,12,12,13,13,14,14,16,16,17,17,18,18,19,19,20,20,21,21,22,22,23,23,24,24,25,25,26,26],"right_children":[2,4,6,8,10,12,14,-1,16,18,20,22,24,26,28,-1,30,32,34,36,38,40,42,44,46,48,50,-1,-1,-1,-1,-1,-1,-1,-1,-1,-1,-1,-1,-1,-1,-1,-1,-1,-1,-1,-1,-1,-1,-1,-1],"split_conditions":[3.75817E-1,1.613924E-1,6.36076E-1,1.1137011E0,2.1020636E-1,3.6796486E-1,5.063508E-1,4.9707326E-3,1.1544714E0,8.0805145E-2,3.530876E-1,5.392157E-1,4.940901E-1,4.261656E-1,8.9611006E-1,2.8054884E-3,5.5733254E4,1.8898207E-1,3.627451E-1,4.9335152E-1,3.4640524E-1,1.3002923E-1,1.1518039E0,1.2071753E0,5.29832E-1,2.7816784E-1,5.8968152E4,-2.9374694E-3,-4.3951287E-3,1.2431585E-3,2.15401E-3,6.251723E-4,2.2471428E-3,1.5151757E-3,4.2919518E-4,9.3331543E-4,5.069859E-4,2.563576E-4,-1.685398E-4,1.786548E-3,3.9745864E-4,-1.4264746E-4,-5.6182983E-4,-6.101497E-4,-1.1822575E-3,-3.8956702E-4,-1.5650712E-3,-7.827938E-4,-1.3875165E-3,-2.089577E-3,-1.1529804E-3],"split_indices":[0,0,0,10,2,2,9,0,10,2,2,0,9,2,2,0,11,1,0,1,0,2,10,10,2,2,11,0,0,0,0,0,0,0,0,0,0,0,0,0,0,0,0,0,0,0,0,0,0,0,0],"split_type":[0,0,0,0,0,0,0,0,0,0,0,0,0,0,0,0,0,0,0,0,0,0,0,0,0,0,0,0,0,0,0,0,0,0,0,0,0,0,0,0,0,0,0,0,0,0,0,0,0,0,0],"sum_hessian":[5.08E2,2.02E2,3.06E2,1E2,1.02E2,1.32E2,1.74E2,6E0,9.4E1,5.8E1,4.4E1,6.3E1,6.9E1,1.37E2,3.7E1,5.8E1,3.6E1,1.8E1,4E1,3.3E1,1.1E1,4.9E1,1.4E1,5.3E1,1.6E1,6E1,7.7E1,2.8E1,9E0,7E0,2.9E1,1E0,1.7E1,3.9E1,1E0,2.5E1,8E0,5E0,6E0,1E0,4.8E1,1E1,4E0,4.3E1,1E1,1E0,1.5E1,2.2E1,3.8E1,7E1,7E0],"tree_param":{"num_deleted":"0","num_feature":"12","num_nodes":"51","size_leaf_vector":"1"}},{"base_weights":[5.703497E-5,3.270748E-2,-2.942604E-2,4.5877703E-2,1.1845362E-2,-2.2471579E-2,-6.0832497E-2,4.757699E-3,4.312551E-2,1.9720579E-2,-1.609034E-3,-7.504032E-3,-2.8934708E-2,-2.6672953E-3,-4.197348E-3,5.0859537E-2,3.533127E-2,2.6361858E-2,1.3866603E-2,3.2874204E-3,-1.1675894E-2,4.373758E-3,-1.4961086E-2,-1.4689629E-2,-3.3474565E-2,2.776726E-3,1.954752E-3,2.1681995E-3,1.3063279E-3,1.4483319E-3,6.208678E-4,8.1907463E-4,3.5594866E-4,4.006362E-4,6.432086E-6,-2.978027E-4,-6.895654E-4,1.7418832E-3,9.3107956E-5,-5.5413006E-4,-1.2441928E-3,-3.2184026E-4,-8.850962E-4,-1.5640969E-3,-2.3607502E-3],"categories":[],"categories_nodes":[],"categories_segments":[],"categories_sizes":[],"default_left":[0,0,0,0,0,0,0,0,0,0,0,0,0,0,0,0,0,0,0,0,0,0,0,0,0,0,0,0,0,0,0,0,0,0,0,0,0,0,0,0,0,0,0,0,0],"id":34,"left_children":[1,3,5,7,9,11,13,-1,15,17,19,21,23,-1,-1,25,27,29,31,33,35,37,39,41,43,-1,-1,-1,-1,-1,-1,-1,-1,-1,-1,-1,-1,-1,-1,-1,-1,-1,-1,-1,-1],"loss_changes":[4.909439E-1,6.594816E-2,5.716823E-2,1.5967906E-2,1.0097577E-2,2.116178E-2,3.8281083E-3,0E0,6.762922E-3,1.9671228E-3,1.8128927E-3,6.088422E-3,9.467542E-3,0E0,0E0,1.6237795E-3,4.3385252E-3,6.2101334E-4,4.6034483E-4,3.721239E-4,6.3056126E-5,2.0009805E-3,1.3406053E-3,8.5559394E-4,2.0178407E-3,0E0,0E0,0E0,0E0,0E0,0E0,0E0,0E0,0E0,0E0,0E0,0E0,0E0,0E0,0E0,0E0,0E0,0E0,0E0,0E0],"parents":[2147483647,0,0,1,1,2,2,3,3,4,4,5,